genomestart 33
trait 1 0.1 0 0 0 0 0 0 0
node 0 1 1 1 NullActivation
node 1 1 1 1 NullActivation
node 2 1 1 1 NullActivation
node 3 1 1 1 NullActivation
node 4 1 1 1 NullActivation
node 5 1 1 1 NullActivation
node 6 1 1 1 NullActivation
node 7 1 1 1 NullActivation
node 8 1 1 1 NullActivation
node 9 1 1 1 NullActivation
node 10 1 1 1 NullActivation
node 11 1 1 1 NullActivation
node 12 1 1 1 NullActivation
node 13 1 1 1 NullActivation
node 14 1 1 1 NullActivation
node 15 1 1 1 NullActivation
node 16 1 1 1 NullActivation
node 17 1 1 1 NullActivation
node 18 1 1 1 NullActivation
node 19 1 1 1 NullActivation
node 20 1 1 1 NullActivation
node 21 1 1 1 NullActivation
node 22 1 1 1 NullActivation
node 23 1 1 1 NullActivation
node 24 1 1 1 NullActivation
node 25 1 1 1 NullActivation
node 26 1 1 1 NullActivation
node 27 1 1 1 NullActivation
node 28 1 1 1 NullActivation
node 29 1 1 1 NullActivation
node 30 1 1 1 NullActivation
node 31 1 1 1 NullActivation
node 32 1 1 1 NullActivation
node 33 1 1 1 NullActivation
node 34 1 1 1 NullActivation
node 35 1 1 1 NullActivation
node 36 1 1 1 NullActivation
node 37 1 1 1 NullActivation
node 38 1 1 1 NullActivation
node 39 1 1 1 NullActivation
node 40 1 1 1 NullActivation
node 41 1 1 1 NullActivation
node 42 1 1 1 NullActivation
node 43 1 1 1 NullActivation
node 44 1 1 1 NullActivation
node 45 1 1 1 NullActivation
node 46 1 1 1 NullActivation
node 47 1 1 1 NullActivation
node 48 1 1 1 NullActivation
node 49 1 1 1 NullActivation
node 50 1 1 1 NullActivation
node 51 1 1 1 NullActivation
node 52 1 1 1 NullActivation
node 53 1 1 1 NullActivation
node 54 1 1 1 NullActivation
node 55 1 1 1 NullActivation
node 56 1 1 1 NullActivation
node 57 1 1 1 NullActivation
node 58 1 1 1 NullActivation
node 59 1 1 1 NullActivation
node 60 1 1 1 NullActivation
node 61 1 1 1 NullActivation
node 62 1 1 1 NullActivation
node 63 1 1 1 NullActivation
node 64 1 1 1 NullActivation
node 65 1 1 1 NullActivation
node 66 1 1 1 NullActivation
node 67 1 1 1 NullActivation
node 68 1 1 1 NullActivation
node 69 1 1 1 NullActivation
node 70 1 1 1 NullActivation
node 71 1 1 1 NullActivation
node 72 1 1 1 NullActivation
node 73 1 1 1 NullActivation
node 74 1 1 1 NullActivation
node 75 1 1 1 NullActivation
node 76 1 1 1 NullActivation
node 77 1 1 1 NullActivation
node 78 1 1 1 NullActivation
node 79 1 1 1 NullActivation
node 80 1 1 1 NullActivation
node 81 1 1 1 NullActivation
node 82 1 1 1 NullActivation
node 83 1 1 1 NullActivation
node 84 1 1 1 NullActivation
node 85 1 1 1 NullActivation
node 86 1 1 1 NullActivation
node 87 1 1 1 NullActivation
node 88 1 1 1 NullActivation
node 89 1 1 1 NullActivation
node 90 1 1 1 NullActivation
node 91 1 1 1 NullActivation
node 92 1 1 1 NullActivation
node 93 1 1 1 NullActivation
node 94 1 1 1 NullActivation
node 95 1 1 1 NullActivation
node 96 1 1 1 NullActivation
node 97 1 1 1 NullActivation
node 98 1 1 1 NullActivation
node 99 1 1 1 NullActivation
node 100 1 1 1 NullActivation
node 101 1 1 1 NullActivation
node 102 1 0 2 SigmoidSteepenedActivation
node 103 1 0 2 SigmoidSteepenedActivation
node 104 1 0 2 SigmoidSteepenedActivation
node 105 1 0 2 SigmoidSteepenedActivation
node 106 1 0 2 SigmoidSteepenedActivation
node 107 1 0 2 SigmoidSteepenedActivation
node 108 1 0 2 SigmoidSteepenedActivation
node 109 1 0 2 SigmoidSteepenedActivation
node 110 1 0 2 SigmoidSteepenedActivation
node 111 1 0 2 SigmoidSteepenedActivation
node 112 1 0 2 SigmoidSteepenedActivation
node 113 1 0 2 SigmoidSteepenedActivation
node 114 1 0 2 SigmoidSteepenedActivation
node 115 1 0 2 SigmoidSteepenedActivation
node 116 1 0 2 SigmoidSteepenedActivation
node 118 1 0 0 SigmoidSteepenedActivation
node 139 1 0 0 SigmoidSteepenedActivation
node 144 1 0 0 SigmoidSteepenedActivation
node 193 1 0 0 SigmoidSteepenedActivation
node 220 1 0 0 SigmoidSteepenedActivation
node 234 1 0 0 SigmoidSteepenedActivation
node 280 1 0 0 SigmoidSteepenedActivation
node 344 1 0 0 SigmoidSteepenedActivation
node 376 1 0 0 SigmoidSteepenedActivation
node 377 1 0 0 SigmoidSteepenedActivation
node 449 1 0 0 SigmoidSteepenedActivation
node 472 1 0 0 SigmoidSteepenedActivation
node 545 1 0 0 SigmoidSteepenedActivation
node 563 1 0 0 SigmoidSteepenedActivation
node 579 1 0 0 SigmoidSteepenedActivation
node 630 1 0 0 SigmoidSteepenedActivation
node 632 1 0 0 SigmoidSteepenedActivation
node 761 1 0 0 SigmoidSteepenedActivation
node 769 1 0 0 SigmoidSteepenedActivation
node 799 1 0 0 SigmoidSteepenedActivation
node 868 1 0 0 SigmoidSteepenedActivation
node 903 1 0 0 SigmoidSteepenedActivation
node 989 1 0 0 SigmoidSteepenedActivation
node 1049 1 0 0 SigmoidSteepenedActivation
node 1138 1 0 0 SigmoidSteepenedActivation
node 1158 1 0 0 SigmoidSteepenedActivation
node 1167 1 0 0 SigmoidSteepenedActivation
node 1196 1 0 0 SigmoidSteepenedActivation
node 1218 1 0 0 SigmoidSteepenedActivation
node 1261 1 0 0 SigmoidSteepenedActivation
node 1277 1 0 0 SigmoidSteepenedActivation
node 1426 1 0 0 SigmoidSteepenedActivation
node 1451 1 0 0 SigmoidSteepenedActivation
node 1460 1 0 0 SigmoidSteepenedActivation
node 1489 1 0 0 SigmoidSteepenedActivation
node 1493 1 0 0 SigmoidSteepenedActivation
node 1528 1 0 0 SigmoidSteepenedActivation
node 1634 1 0 0 SigmoidSteepenedActivation
node 1640 1 0 0 SigmoidSteepenedActivation
gene 1 95 106 0.36074558558646264 false 16 0.36074558558646264 true
gene 1 96 107 0.8399718474731921 false 17 0.8399718474731921 true
gene 1 97 108 -6.069605330240527 false 18 -6.069605330240527 true
gene 1 98 109 3.7558366894965793 false 19 3.7558366894965793 true
gene 1 99 110 1.2397109279470917 false 20 1.2397109279470917 true
gene 1 100 111 0.8830144767560659 false 21 0.8830144767560659 true
gene 1 101 112 4.0497547916471754 false 22 4.0497547916471754 true
gene 1 0 102 -1.7933765896257188 false 23 -1.7933765896257188 true
gene 1 3 102 0.1852545650667152 false 24 0.1852545650667152 true
gene 1 6 102 2.5475065405556254 false 25 2.5475065405556254 true
gene 1 8 102 -0.5786326667806697 false 26 -0.5786326667806697 true
gene 1 11 102 -1.0507259087373495 false 27 -1.0507259087373495 true
gene 1 14 102 -3.4638517899663412 false 28 -3.4638517899663412 true
gene 1 17 102 0.1538495164438699 false 29 0.1538495164438699 true
gene 1 19 102 1.039220152490735 false 30 1.039220152490735 true
gene 1 22 102 1.389915418568692 false 31 1.389915418568692 true
gene 1 25 102 0.6435661123136305 false 32 0.6435661123136305 true
gene 1 28 102 1.1546810721801541 false 33 1.1546810721801541 true
gene 1 30 102 4.3318961175088475 false 34 4.3318961175088475 true
gene 1 33 102 -0.8206964733354217 false 35 -0.8206964733354217 true
gene 1 36 102 2.390749855407357 false 36 2.390749855407357 true
gene 1 39 102 1.5945686743390917 false 37 1.5945686743390917 true
gene 1 41 102 4.272911196970426 false 38 4.272911196970426 true
gene 1 44 102 0.3447231323929854 false 39 0.3447231323929854 true
gene 1 47 102 5.602091147384903 false 40 5.602091147384903 true
gene 1 50 102 1.9341001621765712 false 41 1.9341001621765712 true
gene 1 53 102 -0.543809350126444 false 42 -0.543809350126444 true
gene 1 55 102 1.2334242687909858 false 43 1.2334242687909858 true
gene 1 58 102 0.5289659023337404 false 44 0.5289659023337404 true
gene 1 61 102 0.050636206782625426 false 45 0.050636206782625426 true
gene 1 63 102 -0.5322495603894235 false 46 -0.5322495603894235 true
gene 1 66 102 0.4008790121162304 false 47 0.4008790121162304 true
gene 1 69 102 0.8805451696306795 false 48 0.8805451696306795 true
gene 1 72 102 -6.641078721612655 false 49 -6.641078721612655 true
gene 1 75 102 0.5386994513657902 false 50 0.5386994513657902 true
gene 1 0 103 2.5110542692423667 false 23 2.5110542692423667 true
gene 1 3 103 5.019657336898301 false 24 5.019657336898301 true
gene 1 6 103 -0.5188857792256256 false 25 -0.5188857792256256 true
gene 1 8 103 0.5192685665075198 false 26 0.5192685665075198 true
gene 1 11 103 0.12042954860398336 false 27 0.12042954860398336 true
gene 1 14 103 1.1330725800226746 false 28 1.1330725800226746 true
gene 1 17 103 2.6268393487841406 false 29 2.6268393487841406 true
gene 1 19 103 -4.731251608901283 false 30 -4.731251608901283 true
gene 1 22 103 0.39987486020465834 false 31 0.39987486020465834 true
gene 1 25 103 1.7529119325708482 false 32 1.7529119325708482 true
gene 1 28 103 -0.9976231887206432 false 33 -0.9976231887206432 true
gene 1 30 103 2.534430830248715 false 34 2.534430830248715 true
gene 1 33 103 0.21573986273091078 false 35 0.21573986273091078 true
gene 1 36 103 -1.9185648088355158 false 36 -1.9185648088355158 true
gene 1 39 103 -3.0563337303715454 false 37 -3.0563337303715454 true
gene 1 41 103 -1.0713729722471528 false 38 -1.0713729722471528 true
gene 1 44 103 -1.359792408557024 false 39 -1.359792408557024 true
gene 1 47 103 2.0191649850858626 false 40 2.0191649850858626 true
gene 1 50 103 3.2696440845190997 false 41 3.2696440845190997 true
gene 1 53 103 -2.8163936728872 false 42 -2.8163936728872 true
gene 1 55 103 -0.07726204333408426 false 43 -0.07726204333408426 true
gene 1 58 103 -2.227317978494731 false 44 -2.227317978494731 true
gene 1 61 103 0.05599009665228594 false 45 0.05599009665228594 true
gene 1 63 103 -1.3952306592003714 false 46 -1.3952306592003714 true
gene 1 66 103 2.606356791650974 false 47 2.606356791650974 true
gene 1 69 103 0.6236834021748848 false 48 0.6236834021748848 true
gene 1 72 103 -2.0570504905940785 false 49 -2.0570504905940785 true
gene 1 75 103 -1.0877995975600865 false 50 -1.0877995975600865 true
gene 1 0 104 0.12238980532820881 false 23 0.12238980532820881 true
gene 1 3 104 1.131591436679598 false 24 1.131591436679598 true
gene 1 6 104 1.8546003243489801 false 25 1.8546003243489801 true
gene 1 8 104 -2.161853538160496 false 26 -2.161853538160496 true
gene 1 11 104 0.8011369743886666 false 27 0.8011369743886666 true
gene 1 14 104 -1.9308751763915804 false 28 -1.9308751763915804 true
gene 1 17 104 -1.2264716237709674 false 29 -1.2264716237709674 true
gene 1 19 104 0.6739436238010854 false 30 0.6739436238010854 true
gene 1 22 104 6.943253621980938 false 31 6.943253621980938 true
gene 1 25 104 -0.06384647301890917 false 32 -0.06384647301890917 true
gene 1 28 104 1.4617205199154144 false 33 1.4617205199154144 true
gene 1 30 104 -1.9472681712582136 false 34 -1.9472681712582136 true
gene 1 33 104 -0.2183334155210594 false 35 -0.2183334155210594 true
gene 1 36 104 -1.0525071911477362 false 36 -1.0525071911477362 true
gene 1 39 104 -1.8326102862567288 false 37 -1.8326102862567288 true
gene 1 41 104 5.723057900272954 false 38 5.723057900272954 true
gene 1 44 104 2.86651417147598 false 39 2.86651417147598 true
gene 1 47 104 -2.549236506335432 false 40 -2.549236506335432 true
gene 1 50 104 0.5944696149765928 false 41 0.5944696149765928 true
gene 1 53 104 4.350622069713086 false 42 4.350622069713086 true
gene 1 55 104 -0.05143400813662874 false 43 -0.05143400813662874 true
gene 1 58 104 -0.008799035733374982 false 44 -0.008799035733374982 true
gene 1 61 104 2.776908005006647 false 45 2.776908005006647 true
gene 1 63 104 0.8758659370520588 false 46 0.8758659370520588 true
gene 1 66 104 -1.0802747356064104 false 47 -1.0802747356064104 true
gene 1 69 104 -2.0455594331063285 false 48 -2.0455594331063285 true
gene 1 72 104 1.2024739137410618 false 49 1.2024739137410618 true
gene 1 75 104 -2.299084253863684 false 50 -2.299084253863684 true
gene 1 87 102 1.572380761701471 false 51 1.572380761701471 true
gene 1 87 103 -3.72045326416437 false 52 -3.72045326416437 true
gene 1 87 104 -2.2858450825999497 false 53 -2.2858450825999497 true
gene 1 87 105 -2.6521603906545526 false 54 -2.6521603906545526 true
gene 1 87 106 -3.0388279359768857 false 55 -3.0388279359768857 true
gene 1 87 107 -0.5672381967490016 false 56 -0.5672381967490016 true
gene 1 87 108 -2.3834901578847534 false 57 -2.3834901578847534 true
gene 1 87 109 1.0592463259654934 false 58 1.0592463259654934 true
gene 1 87 110 1.6530604115244023 false 59 1.6530604115244023 true
gene 1 87 111 0.23480877950110912 false 60 0.23480877950110912 true
gene 1 87 112 0.667620332621774 false 61 0.667620332621774 true
gene 1 87 116 1.6336614226063673 false 65 1.6336614226063673 true
gene 1 90 102 -1.1959224486309399 false 51 -1.1959224486309399 true
gene 1 90 103 -1.1596741888097752 false 52 -1.1596741888097752 true
gene 1 90 104 4.535024189424017 false 53 4.535024189424017 true
gene 1 90 105 -0.829920767944754 false 54 -0.829920767944754 true
gene 1 90 106 2.7501944959756424 false 55 2.7501944959756424 true
gene 1 90 107 1.8249724447135964 false 56 1.8249724447135964 true
gene 1 90 108 -5.406283233646242 false 57 -5.406283233646242 true
gene 1 90 109 2.7196059205132253 false 58 2.7196059205132253 true
gene 1 90 110 -0.1688202228547675 false 59 -0.1688202228547675 true
gene 1 90 111 -0.8946296071189951 false 60 -0.8946296071189951 true
gene 1 90 112 1.8228451283015026 false 61 1.8228451283015026 true
gene 1 90 116 -1.640885071402747 false 65 -1.640885071402747 true
gene 1 91 102 0.6687938263303681 false 51 0.6687938263303681 true
gene 1 91 103 2.5179162627651985 false 52 2.5179162627651985 true
gene 1 91 104 -0.7384655661296502 false 53 -0.7384655661296502 true
gene 1 91 105 -5.049505479243149 false 54 -5.049505479243149 true
gene 1 91 106 -1.1853734637009747 false 55 -1.1853734637009747 true
gene 1 91 107 4.21589005480295 false 56 4.21589005480295 true
gene 1 91 108 1.0646438757932177 false 57 1.0646438757932177 true
gene 1 91 109 0.432873962893503 false 58 0.432873962893503 true
gene 1 91 110 -0.3016393128524069 false 59 -0.3016393128524069 true
gene 1 91 111 -0.8939707920127307 false 60 -0.8939707920127307 true
gene 1 91 112 -2.6060463609341413 false 61 -2.6060463609341413 true
gene 1 91 116 -0.7117277767854816 false 65 -0.7117277767854816 true
gene 1 92 103 2.8932422680821457 false 52 2.8932422680821457 true
gene 1 93 103 3.4378102447309162 false 52 3.4378102447309162 true
gene 1 94 105 -0.6419648683832854 false 54 -0.6419648683832854 true
gene 1 94 107 7.7903387212035025 false 56 7.7903387212035025 true
gene 1 94 112 1.7762716484741579 false 61 1.7762716484741579 true
gene 1 72 118 2.1605852444313305 false 62 2.1605852444313305 true
gene 1 118 103 -3.385735731481578 false 63 -3.385735731481578 true
gene 1 69 139 -2.852188597262546 false 116 -2.852188597262546 true
gene 1 139 103 -2.8945104850591026 false 117 -2.8945104850591026 true
gene 1 6 144 -1.3231899415478139 false 127 -1.3231899415478139 true
gene 1 144 103 0.8935268355176859 false 128 0.8935268355176859 true
gene 1 90 193 -2.7430053101911827 false 252 -2.7430053101911827 true
gene 1 193 116 -6.141241890378431 false 253 -6.141241890378431 true
gene 1 3 220 1.2335348491463278 false 319 1.2335348491463278 true
gene 1 220 104 -3.083313604151584 false 320 -3.083313604151584 true
gene 1 69 234 2.9130383615105013 false 353 2.9130383615105013 true
gene 1 234 102 6.332143041402683 false 354 6.332143041402683 true
gene 1 14 280 2.2808884477043803 false 466 2.2808884477043803 true
gene 1 280 103 0.8646576395593704 false 467 0.8646576395593704 true
gene 1 102 193 3.5966620643602534 false 473 3.5966620643602534 true
gene 1 16 139 0.370389421190567 false 519 0.370389421190567 true
gene 1 87 344 0.9607872107882576 false 640 0.9607872107882576 true
gene 1 344 105 2.345757810485468 false 641 2.345757810485468 true
gene 1 44 376 -0.5074090709322175 false 731 -0.5074090709322175 true
gene 1 376 104 0.3756608092347524 false 732 0.3756608092347524 true
gene 1 61 377 0.48586627068590993 false 734 0.48586627068590993 true
gene 1 377 103 -0.3177175362586629 false 735 -0.3177175362586629 true
gene 1 13 108 1.1029013889582162 false 852 1.1029013889582162 true
gene 1 118 449 2.7022177760051496 false 932 2.7022177760051496 true
gene 1 449 103 0.23012665702904578 false 933 0.23012665702904578 true
gene 1 69 472 -1.2383983745820928 false 998 -1.2383983745820928 true
gene 1 472 102 8.106780289897136 false 999 8.106780289897136 true
gene 1 472 280 3.1612142556439697 false 1012 3.1612142556439697 true
gene 1 30 112 0.7915295214191388 false 1057 0.7915295214191388 true
gene 1 75 545 2.997193370671773 false 1188 2.997193370671773 true
gene 1 545 104 2.0227314716552223 false 1189 2.0227314716552223 true
gene 1 22 563 -0.7450993822153423 false 1233 -0.7450993822153423 true
gene 1 563 102 1.5818174471662936 false 1234 1.5818174471662936 true
gene 1 22 579 -0.289597741709288 false 1270 -0.289597741709288 true
gene 1 579 103 0.661933843391567 false 1271 0.661933843391567 true
gene 1 3 630 -0.01006941636248826 false 1403 -0.01006941636248826 true
gene 1 630 102 -0.5418218822362593 false 1404 -0.5418218822362593 true
gene 1 91 632 0.009641770636209246 false 1408 0.009641770636209246 true
gene 1 632 110 -0.7353133234843343 false 1409 -0.7353133234843343 true
gene 1 84 103 -0.3092200683915111 false 1439 -0.3092200683915111 true
gene 1 89 472 3.8666569732079155 false 1731 3.8666569732079155 true
gene 1 41 761 1.4738185715047907 false 1744 1.4738185715047907 true
gene 1 761 103 1.0148499040514003 false 1745 1.0148499040514003 true
gene 1 75 769 -2.000323185452796 false 1767 -2.000323185452796 true
gene 1 769 103 -1.2787999666817402 false 1768 -1.2787999666817402 true
gene 1 41 799 -1.9565005931061197 false 1843 -1.9565005931061197 true
gene 1 799 761 -0.6966907865891838 false 1844 -0.6966907865891838 true
gene 1 472 376 0.8004837646913768 false 1857 0.8004837646913768 true
gene 1 280 344 -1.4270725193854559 false 1872 -1.4270725193854559 true
gene 1 769 868 1.5615981951982234 false 2045 1.5615981951982234 true
gene 1 868 103 -0.2740475567007188 false 2046 -0.2740475567007188 true
gene 1 19 903 -0.9030498856314059 false 2142 -0.9030498856314059 true
gene 1 903 104 -0.9454152085560014 false 2143 -0.9454152085560014 true
gene 1 34 220 -2.283995711926875 false 2232 -2.283995711926875 true
gene 1 64 280 0.579667567762627 false 2360 0.579667567762627 true
gene 1 19 989 -0.931615601920936 false 2369 -0.931615601920936 true
gene 1 989 903 -1.2756773002436859 false 2370 -1.2756773002436859 true
gene 1 545 1049 1.3709388928230424 false 2534 1.3709388928230424 true
gene 1 1049 104 -0.5296827856441991 false 2535 -0.5296827856441991 true
gene 1 91 1138 1.2425623898909826 false 2767 1.2425623898909826 true
gene 1 1138 632 -0.12068542957881712 false 2768 -0.12068542957881712 true
gene 1 41 1158 1.3214663199804826 false 2819 1.3214663199804826 true
gene 1 1158 102 0.6329254363798189 false 2820 0.6329254363798189 true
gene 1 75 1167 -1.282977193910812 false 2842 -1.282977193910812 true
gene 1 1167 103 0.050617575690207195 false 2843 0.050617575690207195 true
gene 1 64 1196 0.745741036218133 false 2918 0.745741036218133 true
gene 1 1196 280 0.8354226087471045 false 2919 0.8354226087471045 true
gene 1 41 1218 -0.9961310770575313 false 2977 -0.9961310770575313 true
gene 1 1218 1158 -0.3742283622033943 false 2978 -0.3742283622033943 true
gene 1 90 1261 -0.10000874013976607 false 3091 -0.10000874013976607 true
gene 1 1261 110 -1.7627175593216524 false 3092 -1.7627175593216524 true
gene 1 6 1277 -0.8899780811275604 false 3132 -0.8899780811275604 true
gene 1 1277 103 -0.31613624627853565 false 3133 -0.31613624627853565 true
gene 1 22 1426 -0.05368419980856376 false 3518 -0.05368419980856376 true
gene 1 1426 103 1.2448907702944865 false 3519 1.2448907702944865 true
gene 1 63 1261 -0.40873538095559725 false 3573 -0.40873538095559725 true
gene 1 47 1451 -0.9543187155564078 false 3587 -0.9543187155564078 true
gene 1 1451 102 -0.36419870516648034 false 3588 -0.36419870516648034 true
gene 1 17 1460 -1.1062570893164558 false 3610 -1.1062570893164558 true
gene 1 1460 102 -0.6366516506947393 false 3611 -0.6366516506947393 true
gene 1 84 234 -0.6363484207276171 false 3678 -0.6363484207276171 true
gene 1 16 1489 1.0557368834128127 false 3685 1.0557368834128127 true
gene 1 1489 139 0.8395151666200904 false 3686 0.8395151666200904 true
gene 1 90 1493 -0.4635981858527071 false 3696 -0.4635981858527071 true
gene 1 1493 107 -0.9223257514714134 false 3697 -0.9223257514714134 true
gene 1 63 1528 0.5285319087230876 false 3788 0.5285319087230876 true
gene 1 1528 104 0.19361727029439588 false 3789 0.19361727029439588 true
gene 1 69 1634 0.8706513984717671 false 4066 0.8706513984717671 true
gene 1 1634 104 0.0004501691861957813 false 4067 0.0004501691861957813 true
gene 1 41 1640 1.367561793895058 false 4081 1.367561793895058 true
gene 1 1640 104 3.645948479425249 false 4082 3.645948479425249 true
genomeend 33