genomestart 33
trait 1 0.1 0 0 0 0 0 0 0
node 0 1 1 1 NullActivation
node 1 1 1 1 NullActivation
node 2 1 1 1 NullActivation
node 3 1 1 1 NullActivation
node 4 1 1 1 NullActivation
node 5 1 1 1 NullActivation
node 6 1 1 1 NullActivation
node 7 1 1 1 NullActivation
node 8 1 1 1 NullActivation
node 9 1 1 1 NullActivation
node 10 1 1 1 NullActivation
node 11 1 1 1 NullActivation
node 12 1 1 1 NullActivation
node 13 1 1 1 NullActivation
node 14 1 1 1 NullActivation
node 15 1 1 1 NullActivation
node 16 1 1 1 NullActivation
node 17 1 1 1 NullActivation
node 18 1 1 1 NullActivation
node 19 1 1 1 NullActivation
node 20 1 1 1 NullActivation
node 21 1 1 1 NullActivation
node 22 1 1 1 NullActivation
node 23 1 1 1 NullActivation
node 24 1 1 1 NullActivation
node 25 1 1 1 NullActivation
node 26 1 1 1 NullActivation
node 27 1 1 1 NullActivation
node 28 1 1 1 NullActivation
node 29 1 1 1 NullActivation
node 30 1 1 1 NullActivation
node 31 1 1 1 NullActivation
node 32 1 1 1 NullActivation
node 33 1 1 1 NullActivation
node 34 1 1 1 NullActivation
node 35 1 1 1 NullActivation
node 36 1 1 1 NullActivation
node 37 1 1 1 NullActivation
node 38 1 1 1 NullActivation
node 39 1 1 1 NullActivation
node 40 1 1 1 NullActivation
node 41 1 1 1 NullActivation
node 42 1 1 1 NullActivation
node 43 1 1 1 NullActivation
node 44 1 1 1 NullActivation
node 45 1 1 1 NullActivation
node 46 1 1 1 NullActivation
node 47 1 1 1 NullActivation
node 48 1 1 1 NullActivation
node 49 1 1 1 NullActivation
node 50 1 1 1 NullActivation
node 51 1 1 1 NullActivation
node 52 1 1 1 NullActivation
node 53 1 1 1 NullActivation
node 54 1 1 1 NullActivation
node 55 1 1 1 NullActivation
node 56 1 1 1 NullActivation
node 57 1 1 1 NullActivation
node 58 1 1 1 NullActivation
node 59 1 1 1 NullActivation
node 60 1 1 1 NullActivation
node 61 1 1 1 NullActivation
node 62 1 1 1 NullActivation
node 63 1 1 1 NullActivation
node 64 1 1 1 NullActivation
node 65 1 1 1 NullActivation
node 66 1 1 1 NullActivation
node 67 1 1 1 NullActivation
node 68 1 1 1 NullActivation
node 69 1 1 1 NullActivation
node 70 1 1 1 NullActivation
node 71 1 1 1 NullActivation
node 72 1 1 1 NullActivation
node 73 1 1 1 NullActivation
node 74 1 1 1 NullActivation
node 75 1 1 1 NullActivation
node 76 1 1 1 NullActivation
node 77 1 1 1 NullActivation
node 78 1 1 1 NullActivation
node 79 1 1 1 NullActivation
node 80 1 1 1 NullActivation
node 81 1 1 1 NullActivation
node 82 1 1 1 NullActivation
node 83 1 1 1 NullActivation
node 84 1 1 1 NullActivation
node 85 1 1 1 NullActivation
node 86 1 1 1 NullActivation
node 87 1 1 1 NullActivation
node 88 1 1 1 NullActivation
node 89 1 1 1 NullActivation
node 90 1 1 1 NullActivation
node 91 1 1 1 NullActivation
node 92 1 1 1 NullActivation
node 93 1 1 1 NullActivation
node 94 1 1 1 NullActivation
node 95 1 1 1 NullActivation
node 96 1 1 1 NullActivation
node 97 1 1 1 NullActivation
node 98 1 1 1 NullActivation
node 99 1 1 1 NullActivation
node 100 1 1 1 NullActivation
node 101 1 1 1 NullActivation
node 102 1 0 2 SigmoidSteepenedActivation
node 103 1 0 2 SigmoidSteepenedActivation
node 104 1 0 2 SigmoidSteepenedActivation
node 105 1 0 2 SigmoidSteepenedActivation
node 106 1 0 2 SigmoidSteepenedActivation
node 107 1 0 2 SigmoidSteepenedActivation
node 108 1 0 2 SigmoidSteepenedActivation
node 109 1 0 2 SigmoidSteepenedActivation
node 110 1 0 2 SigmoidSteepenedActivation
node 111 1 0 2 SigmoidSteepenedActivation
node 112 1 0 2 SigmoidSteepenedActivation
node 113 1 0 2 SigmoidSteepenedActivation
node 114 1 0 2 SigmoidSteepenedActivation
node 115 1 0 2 SigmoidSteepenedActivation
node 116 1 0 2 SigmoidSteepenedActivation
node 141 1 0 0 SigmoidSteepenedActivation
node 176 1 0 0 SigmoidSteepenedActivation
node 196 1 0 0 SigmoidSteepenedActivation
node 197 1 0 0 SigmoidSteepenedActivation
node 202 1 0 0 SigmoidSteepenedActivation
node 216 1 0 0 SigmoidSteepenedActivation
node 219 1 0 0 SigmoidSteepenedActivation
node 266 1 0 0 SigmoidSteepenedActivation
node 513 1 0 0 SigmoidSteepenedActivation
node 520 1 0 0 SigmoidSteepenedActivation
node 574 1 0 0 SigmoidSteepenedActivation
node 634 1 0 0 SigmoidSteepenedActivation
node 701 1 0 0 SigmoidSteepenedActivation
node 837 1 0 0 SigmoidSteepenedActivation
node 879 1 0 0 SigmoidSteepenedActivation
node 885 1 0 0 SigmoidSteepenedActivation
node 946 1 0 0 SigmoidSteepenedActivation
node 965 1 0 0 SigmoidSteepenedActivation
node 1119 1 0 0 SigmoidSteepenedActivation
node 1133 1 0 0 SigmoidSteepenedActivation
node 1145 1 0 0 SigmoidSteepenedActivation
node 1157 1 0 0 SigmoidSteepenedActivation
node 1208 1 0 0 SigmoidSteepenedActivation
node 1232 1 0 0 SigmoidSteepenedActivation
node 1276 1 0 0 SigmoidSteepenedActivation
node 1366 1 0 0 SigmoidSteepenedActivation
node 1481 1 0 0 SigmoidSteepenedActivation
node 1601 1 0 0 SigmoidSteepenedActivation
node 1616 1 0 0 SigmoidSteepenedActivation
node 1631 1 0 0 SigmoidSteepenedActivation
gene 1 95 106 0.4973513608549761 false 16 0.4973513608549761 true
gene 1 96 107 1.1152182528644352 false 17 1.1152182528644352 true
gene 1 97 108 0.691431470176248 false 18 0.691431470176248 true
gene 1 98 109 3.4085771510722473 false 19 3.4085771510722473 true
gene 1 99 110 1.3443055657071696 false 20 1.3443055657071696 true
gene 1 100 111 0.4568390531885905 false 21 0.4568390531885905 true
gene 1 101 112 -0.18525641953947797 false 22 -0.18525641953947797 true
gene 1 0 102 0.7522286869798682 false 23 0.7522286869798682 true
gene 1 3 102 -0.14199481718310514 false 24 -0.14199481718310514 true
gene 1 6 102 1.8916858306039397 false 25 1.8916858306039397 true
gene 1 8 102 -0.17274743242135782 false 26 -0.17274743242135782 true
gene 1 11 102 2.481227211712026 false 27 2.481227211712026 true
gene 1 14 102 -1.006474595707616 false 28 -1.006474595707616 true
gene 1 17 102 1.8852714612091654 false 29 1.8852714612091654 true
gene 1 19 102 1.3154035327500675 false 30 1.3154035327500675 true
gene 1 22 102 0.6114538013069452 false 31 0.6114538013069452 true
gene 1 25 102 -0.1863232218457611 false 32 -0.1863232218457611 true
gene 1 28 102 0.05760554243388494 false 33 0.05760554243388494 true
gene 1 30 102 0.830930333988595 false 34 0.830930333988595 true
gene 1 33 102 -0.5454788964259359 false 35 -0.5454788964259359 true
gene 1 36 102 4.418970925229225 false 36 4.418970925229225 true
gene 1 39 102 -0.22557236775300127 false 37 -0.22557236775300127 true
gene 1 41 102 1.4075992308897627 false 38 1.4075992308897627 true
gene 1 44 102 0.8658655537124187 false 39 0.8658655537124187 true
gene 1 47 102 -0.6401714843578161 false 40 -0.6401714843578161 true
gene 1 50 102 2.3954209454235 false 41 2.3954209454235 true
gene 1 53 102 -1.0783638182144415 false 42 -1.0783638182144415 true
gene 1 55 102 0.06653882359596308 false 43 0.06653882359596308 true
gene 1 58 102 0.49597378795095876 false 44 0.49597378795095876 true
gene 1 61 102 0.6021141588857364 false 45 0.6021141588857364 true
gene 1 63 102 -0.0946288503906475 false 46 -0.0946288503906475 true
gene 1 66 102 0.21417196625092944 false 47 0.21417196625092944 true
gene 1 69 102 3.744240046567155 false 48 3.744240046567155 true
gene 1 72 102 -0.14135583691418585 false 49 -0.14135583691418585 true
gene 1 75 102 3.3071137552975656 false 50 3.3071137552975656 true
gene 1 0 103 -0.17490953007609134 false 23 -0.17490953007609134 true
gene 1 3 103 -0.3938301225436139 false 24 -0.3938301225436139 true
gene 1 6 103 -0.03472549625523891 false 25 -0.03472549625523891 true
gene 1 8 103 -0.43223999958476644 false 26 -0.43223999958476644 true
gene 1 11 103 0.7618778071557512 false 27 0.7618778071557512 true
gene 1 14 103 0.6207591972385959 false 28 0.6207591972385959 true
gene 1 17 103 -1.307656919163045 false 29 -1.307656919163045 true
gene 1 19 103 -0.31756453593933004 false 30 -0.31756453593933004 true
gene 1 22 103 1.504497156712709 false 31 1.504497156712709 true
gene 1 25 103 -0.4315955769728604 false 32 -0.4315955769728604 true
gene 1 28 103 -1.015273020659718 false 33 -1.015273020659718 true
gene 1 30 103 0.8656318123933743 false 34 0.8656318123933743 true
gene 1 33 103 -1.138676278492718 false 35 -1.138676278492718 true
gene 1 36 103 -0.5801953987867893 false 36 -0.5801953987867893 true
gene 1 39 103 0.4679765862076257 false 37 0.4679765862076257 true
gene 1 41 103 0.8348254678264696 false 38 0.8348254678264696 true
gene 1 44 103 0.6314347104896556 false 39 0.6314347104896556 true
gene 1 47 103 0.6228183139838128 false 40 0.6228183139838128 true
gene 1 50 103 1.760822280977072 false 41 1.760822280977072 true
gene 1 53 103 -0.05951151676488492 false 42 -0.05951151676488492 true
gene 1 55 103 -0.8649509591763513 false 43 -0.8649509591763513 true
gene 1 58 103 0.3723384882871891 false 44 0.3723384882871891 true
gene 1 61 103 0.09777352072926648 false 45 0.09777352072926648 true
gene 1 63 103 0.9711469431199347 false 46 0.9711469431199347 true
gene 1 66 103 -1.496921416610829 false 47 -1.496921416610829 true
gene 1 69 103 -1.2140532046389527 false 48 -1.2140532046389527 true
gene 1 72 103 1.0205198858752318 false 49 1.0205198858752318 true
gene 1 75 103 -0.5691607930044 false 50 -0.5691607930044 true
gene 1 0 104 -0.4226211359624923 false 23 -0.4226211359624923 true
gene 1 3 104 -4.788412561939355 false 24 -4.788412561939355 true
gene 1 6 104 2.260977642337794 false 25 2.260977642337794 true
gene 1 8 104 0.8608759603343721 false 26 0.8608759603343721 true
gene 1 11 104 -0.818710250394146 false 27 -0.818710250394146 true
gene 1 14 104 -0.7987501634435062 false 28 -0.7987501634435062 true
gene 1 17 104 0.4336775238652927 false 29 0.4336775238652927 true
gene 1 19 104 -1.1695918539604593 false 30 -1.1695918539604593 true
gene 1 22 104 1.0926150086834236 false 31 1.0926150086834236 true
gene 1 25 104 -1.6462255919296602 false 32 -1.6462255919296602 true
gene 1 28 104 1.473603519481598 false 33 1.473603519481598 true
gene 1 30 104 -0.5439854081284764 false 34 -0.5439854081284764 true
gene 1 33 104 1.5396822931987755 false 35 1.5396822931987755 true
gene 1 36 104 -0.4508730926845589 false 36 -0.4508730926845589 true
gene 1 39 104 0.5059282539719498 false 37 0.5059282539719498 true
gene 1 41 104 -4.752848558456065 false 38 -4.752848558456065 true
gene 1 44 104 0.5157333490270596 false 39 0.5157333490270596 true
gene 1 47 104 -3.2017815348853995 false 40 -3.2017815348853995 true
gene 1 50 104 -1.9259297305997372 false 41 -1.9259297305997372 true
gene 1 53 104 0.27776894043935546 false 42 0.27776894043935546 true
gene 1 55 104 -1.622150990569071 false 43 -1.622150990569071 true
gene 1 58 104 -1.0157576091750717 false 44 -1.0157576091750717 true
gene 1 61 104 -0.48952756101363926 false 45 -0.48952756101363926 true
gene 1 63 104 0.9181018058824455 false 46 0.9181018058824455 true
gene 1 66 104 1.0687611792783918 false 47 1.0687611792783918 true
gene 1 69 104 1.6008857195584087 false 48 1.6008857195584087 true
gene 1 72 104 0.23494857609672531 false 49 0.23494857609672531 true
gene 1 75 104 -0.5388384186547766 false 50 -0.5388384186547766 true
gene 1 87 102 0.41146610769838643 false 51 0.41146610769838643 true
gene 1 87 103 0.8653026483409116 false 52 0.8653026483409116 true
gene 1 87 104 -1.1566041887150886 false 53 -1.1566041887150886 true
gene 1 87 105 -1.5576330462553405 false 54 -1.5576330462553405 true
gene 1 87 106 -0.19852778430206622 false 55 -0.19852778430206622 true
gene 1 87 107 0.9552647975484376 false 56 0.9552647975484376 true
gene 1 87 108 -0.46478398732034665 false 57 -0.46478398732034665 true
gene 1 87 109 0.11751642938489248 false 58 0.11751642938489248 true
gene 1 87 110 -1.6583001261637005 false 59 -1.6583001261637005 true
gene 1 87 111 -1.9983002871369973 false 60 -1.9983002871369973 true
gene 1 87 112 1.1612316482399956 false 61 1.1612316482399956 true
gene 1 87 116 -2.377175121164007 false 65 -2.377175121164007 true
gene 1 90 102 0.7061851696437093 false 51 0.7061851696437093 true
gene 1 90 103 1.5732572201991206 false 52 1.5732572201991206 true
gene 1 90 104 -0.3666384195873213 false 53 -0.3666384195873213 true
gene 1 90 105 -2.9453720418953235 false 54 -2.9453720418953235 true
gene 1 90 106 0.752850160960947 false 55 0.752850160960947 true
gene 1 90 107 1.0769376267692983 false 56 1.0769376267692983 true
gene 1 90 108 1.114273581655671 false 57 1.114273581655671 true
gene 1 90 109 2.8904878925582023 false 58 2.8904878925582023 true
gene 1 90 110 0.7106654601614764 false 59 0.7106654601614764 true
gene 1 90 111 0.828567051237793 false 60 0.828567051237793 true
gene 1 90 112 0.7040039517126928 false 61 0.7040039517126928 true
gene 1 90 116 -0.170202133607251 false 65 -0.170202133607251 true
gene 1 91 102 -2.0046668959920773 false 51 -2.0046668959920773 true
gene 1 91 103 0.6620395900429891 false 52 0.6620395900429891 true
gene 1 91 104 -1.1495988284372753 false 53 -1.1495988284372753 true
gene 1 91 105 0.6950103170914934 false 54 0.6950103170914934 true
gene 1 91 106 -0.35694185076220114 false 55 -0.35694185076220114 true
gene 1 91 107 -0.13694813589160196 false 56 -0.13694813589160196 true
gene 1 91 108 -0.35841881799538033 false 57 -0.35841881799538033 true
gene 1 91 109 0.7665401666879867 false 58 0.7665401666879867 true
gene 1 91 110 1.8114790476066214 false 59 1.8114790476066214 true
gene 1 91 111 0.20108082769041147 false 60 0.20108082769041147 true
gene 1 91 112 -0.43066285899390144 false 61 -0.43066285899390144 true
gene 1 91 116 1.5055115518803799 false 65 1.5055115518803799 true
gene 1 92 103 -2.128619269916155 false 52 -2.128619269916155 true
gene 1 93 103 -2.4738636735863686 false 52 -2.4738636735863686 true
gene 1 94 105 0.02598002408414357 false 54 0.02598002408414357 true
gene 1 94 107 0.17983264338401406 false 56 0.17983264338401406 true
gene 1 94 112 0.7636201373478138 false 61 0.7636201373478138 true
gene 1 91 141 -1.6963896961222042 false 115 -1.6963896961222042 true
gene 1 141 109 5.450491008868947 false 116 5.450491008868947 true
gene 1 72 176 0.24351946663586088 false 214 0.24351946663586088 true
gene 1 176 103 -1.0127444639179306 false 215 -1.0127444639179306 true
gene 1 55 196 -0.017083444569558612 false 267 -0.017083444569558612 true
gene 1 196 102 0.006456366376472733 false 268 0.006456366376472733 true
gene 1 11 197 -1.448636406124201 false 269 -1.448636406124201 true
gene 1 197 104 0.6336613950783881 false 270 0.6336613950783881 true
gene 1 55 202 2.929979480180431 false 280 2.929979480180431 true
gene 1 202 102 1.6761326539751 false 281 1.6761326539751 true
gene 1 72 216 1.2278517600322512 false 322 1.2278517600322512 true
gene 1 216 176 0.2070437373852346 false 323 0.2070437373852346 true
gene 1 90 219 -0.804048261915965 false 333 -0.804048261915965 true
gene 1 219 107 -0.22264860162988775 false 334 -0.22264860162988775 true
gene 1 44 266 1.6500189352123271 false 453 1.6500189352123271 true
gene 1 266 102 -1.3413013332060637 false 454 -1.3413013332060637 true
gene 1 94 115 0.18856218269997493 false 523 0.18856218269997493 true
gene 1 31 108 1.4603607748542742 false 903 1.4603607748542742 true
gene 1 92 176 -0.8715214151853921 false 939 -0.8715214151853921 true
gene 1 50 513 -0.5038555563382754 false 1119 -0.5038555563382754 true
gene 1 513 103 0.7718048298590388 false 1120 0.7718048298590388 true
gene 1 47 520 0.27331140960846306 false 1134 0.27331140960846306 true
gene 1 520 103 2.811710584808104 false 1135 2.811710584808104 true
gene 1 34 520 -0.054760487688711 false 1218 -0.054760487688711 true
gene 1 1 116 -0.38376307159210055 false 1223 -0.38376307159210055 true
gene 1 47 574 0.2770749850049682 false 1276 0.2770749850049682 true
gene 1 574 103 -0.4765764810492926 false 1277 -0.4765764810492926 true
gene 1 86 219 -0.03287303023258688 false 1385 -0.03287303023258688 true
gene 1 11 634 -0.5892976671821908 false 1421 -0.5892976671821908 true
gene 1 634 197 -1.631857411750218 false 1422 -1.631857411750218 true
gene 1 87 701 -5.751343187565119 false 1600 -5.751343187565119 true
gene 1 701 107 2.2247078134893084 false 1601 2.2247078134893084 true
gene 1 51 202 -1.0193722591902485 false 1861 -1.0193722591902485 true
gene 1 55 837 0.5309238776901912 false 1947 0.5309238776901912 true
gene 1 837 196 0.18542332771422987 false 1948 0.18542332771422987 true
gene 1 176 114 0.7223751934970002 false 1976 0.7223751934970002 true
gene 1 87 879 -0.07772840067860487 false 2065 -0.07772840067860487 true
gene 1 879 116 -5.224672359534466 false 2066 -5.224672359534466 true
gene 1 50 885 -0.7363925305043715 false 2084 -0.7363925305043715 true
gene 1 885 104 0.3747335557530831 false 2085 0.3747335557530831 true
gene 1 90 513 0.5180126515865642 false 2221 0.5180126515865642 true
gene 1 51 946 -0.2171999064346072 false 2253 -0.2171999064346072 true
gene 1 946 202 0.17646939742474732 false 2254 0.17646939742474732 true
gene 1 66 965 0.12403592384736334 false 2304 0.12403592384736334 true
gene 1 965 102 0.7345256995569422 false 2305 0.7345256995569422 true
gene 1 10 965 0.5516907998133092 false 2356 0.5516907998133092 true
gene 1 2 107 0.9891897998930709 false 2615 0.9891897998930709 true
gene 1 141 1119 -1.0032315588080276 false 2715 -1.0032315588080276 true
gene 1 1119 109 0.43677738350846734 false 2716 0.43677738350846734 true
gene 1 66 1133 -0.7303333852106141 false 2754 -0.7303333852106141 true
gene 1 1133 103 -0.2854723736144429 false 2755 -0.2854723736144429 true
gene 1 4 176 -0.309290675763174 false 2765 -0.309290675763174 true
gene 1 47 1145 0.4721601098813805 false 2788 0.4721601098813805 true
gene 1 1145 104 -0.22282123152129774 false 2789 -0.22282123152129774 true
gene 1 66 1157 0.8072019465353746 false 2821 0.8072019465353746 true
gene 1 1157 1133 2.0346323936037423 false 2822 2.0346323936037423 true
gene 1 111 109 -0.3507115165967954 false 2913 -0.3507115165967954 true
gene 1 197 1208 -0.002266672958290361 false 2954 -0.002266672958290361 true
gene 1 1208 104 0.37649955380063205 false 2955 0.37649955380063205 true
gene 1 53 1232 -0.06779939891575994 false 3018 -0.06779939891575994 true
gene 1 1232 102 0.45635936498731056 false 3019 0.45635936498731056 true
gene 1 1232 107 0.7605498388174144 false 3048 0.7605498388174144 true
gene 1 266 1276 -1.7952158130414495 false 3140 -1.7952158130414495 true
gene 1 1276 102 0.2300989151073809 false 3141 0.2300989151073809 true
gene 1 1133 102 -0.7157384369905337 false 3247 -0.7157384369905337 true
gene 1 95 1366 0.19755659191624048 false 3369 0.19755659191624048 true
gene 1 1366 106 -1.7307497589059717 false 3370 -1.7307497589059717 true
gene 1 6 879 5.8745952950889 false 3421 5.8745952950889 true
gene 1 1276 1481 0.010998940171685123 false 3684 0.010998940171685123 true
gene 1 1481 102 1.5323977614704705 false 3685 1.5323977614704705 true
gene 1 54 219 9.372652158854686 false 3840 9.372652158854686 true
gene 1 47 1601 1.112477757083826 false 4006 1.112477757083826 true
gene 1 1601 520 1.5541078602517402 false 4007 1.5541078602517402 true
gene 1 91 1616 1 false 4047 1 true
gene 1 1616 111 0.11514457900121788 false 4048 0.11514457900121788 true
gene 1 66 1631 0.6162092411413129 false 4085 0.6162092411413129 true
gene 1 1631 1157 0.5795540455248549 false 4086 0.5795540455248549 true
genomeend 33
