genomestart 11
trait 1 0.1 0 0 0 0 0 0 0
node 0 1 1 1 NullActivation
node 1 1 1 1 NullActivation
node 2 1 1 1 NullActivation
node 3 1 1 1 NullActivation
node 4 1 1 1 NullActivation
node 5 1 1 1 NullActivation
node 6 1 1 1 NullActivation
node 7 1 1 1 NullActivation
node 8 1 1 1 NullActivation
node 9 1 1 1 NullActivation
node 10 1 1 1 NullActivation
node 11 1 1 1 NullActivation
node 12 1 1 1 NullActivation
node 13 1 1 1 NullActivation
node 14 1 1 1 NullActivation
node 15 1 1 1 NullActivation
node 16 1 1 1 NullActivation
node 17 1 1 1 NullActivation
node 18 1 1 1 NullActivation
node 19 1 1 1 NullActivation
node 20 1 1 1 NullActivation
node 21 1 1 1 NullActivation
node 22 1 1 1 NullActivation
node 23 1 1 1 NullActivation
node 24 1 1 1 NullActivation
node 25 1 1 1 NullActivation
node 26 1 1 1 NullActivation
node 27 1 1 1 NullActivation
node 28 1 1 1 NullActivation
node 29 1 1 1 NullActivation
node 30 1 1 1 NullActivation
node 31 1 1 1 NullActivation
node 32 1 1 1 NullActivation
node 33 1 1 1 NullActivation
node 34 1 1 1 NullActivation
node 35 1 1 1 NullActivation
node 36 1 1 1 NullActivation
node 37 1 1 1 NullActivation
node 38 1 1 1 NullActivation
node 39 1 1 1 NullActivation
node 40 1 1 1 NullActivation
node 41 1 1 1 NullActivation
node 42 1 1 1 NullActivation
node 43 1 1 1 NullActivation
node 44 1 1 1 NullActivation
node 45 1 1 1 NullActivation
node 46 1 1 1 NullActivation
node 47 1 1 1 NullActivation
node 48 1 1 1 NullActivation
node 49 1 1 1 NullActivation
node 50 1 1 1 NullActivation
node 51 1 1 1 NullActivation
node 52 1 1 1 NullActivation
node 53 1 1 1 NullActivation
node 54 1 1 1 NullActivation
node 55 1 1 1 NullActivation
node 56 1 1 1 NullActivation
node 57 1 1 1 NullActivation
node 58 1 1 1 NullActivation
node 59 1 1 1 NullActivation
node 60 1 1 1 NullActivation
node 61 1 1 1 NullActivation
node 62 1 1 1 NullActivation
node 63 1 1 1 NullActivation
node 64 1 1 1 NullActivation
node 65 1 1 1 NullActivation
node 66 1 1 1 NullActivation
node 67 1 1 1 NullActivation
node 68 1 1 1 NullActivation
node 69 1 1 1 NullActivation
node 70 1 1 1 NullActivation
node 71 1 1 1 NullActivation
node 72 1 1 1 NullActivation
node 73 1 1 1 NullActivation
node 74 1 1 1 NullActivation
node 75 1 1 1 NullActivation
node 76 1 1 1 NullActivation
node 77 1 1 1 NullActivation
node 78 1 1 1 NullActivation
node 79 1 1 1 NullActivation
node 80 1 1 1 NullActivation
node 81 1 1 1 NullActivation
node 82 1 1 1 NullActivation
node 83 1 1 1 NullActivation
node 84 1 1 1 NullActivation
node 85 1 1 1 NullActivation
node 86 1 1 1 NullActivation
node 87 1 1 1 NullActivation
node 88 1 1 1 NullActivation
node 89 1 1 1 NullActivation
node 90 1 1 1 NullActivation
node 91 1 1 1 NullActivation
node 92 1 1 1 NullActivation
node 93 1 1 1 NullActivation
node 94 1 1 1 NullActivation
node 95 1 1 1 NullActivation
node 96 1 1 1 NullActivation
node 97 1 1 1 NullActivation
node 98 1 1 1 NullActivation
node 99 1 1 1 NullActivation
node 100 1 1 1 NullActivation
node 101 1 1 1 NullActivation
node 102 1 0 2 SigmoidSteepenedActivation
node 103 1 0 2 SigmoidSteepenedActivation
node 104 1 0 2 SigmoidSteepenedActivation
node 105 1 0 2 SigmoidSteepenedActivation
node 106 1 0 2 SigmoidSteepenedActivation
node 107 1 0 2 SigmoidSteepenedActivation
node 108 1 0 2 SigmoidSteepenedActivation
node 109 1 0 2 SigmoidSteepenedActivation
node 110 1 0 2 SigmoidSteepenedActivation
node 111 1 0 2 SigmoidSteepenedActivation
node 112 1 0 2 SigmoidSteepenedActivation
node 113 1 0 2 SigmoidSteepenedActivation
node 114 1 0 2 SigmoidSteepenedActivation
node 115 1 0 2 SigmoidSteepenedActivation
node 116 1 0 2 SigmoidSteepenedActivation
node 118 1 0 0 SigmoidSteepenedActivation
node 139 1 0 0 SigmoidSteepenedActivation
node 142 1 0 0 SigmoidSteepenedActivation
node 168 1 0 0 SigmoidSteepenedActivation
node 195 1 0 0 SigmoidSteepenedActivation
node 202 1 0 0 SigmoidSteepenedActivation
node 285 1 0 0 SigmoidSteepenedActivation
node 304 1 0 0 SigmoidSteepenedActivation
gene 1 95 106 0.002916734131885413 false 16 0.002916734131885413 true
gene 1 96 107 0.6068494241784905 false 17 0.6068494241784905 true
gene 1 97 108 0.5490819399621805 false 18 0.5490819399621805 true
gene 1 98 109 2.4613501226325196 false 19 2.4613501226325196 true
gene 1 99 110 -0.1500546917908935 false 20 -0.1500546917908935 true
gene 1 100 111 -0.17828272583201432 false 21 -0.17828272583201432 true
gene 1 101 112 -0.04719166842799141 false 22 -0.04719166842799141 true
gene 1 0 102 0.21635042897807133 false 23 0.21635042897807133 true
gene 1 3 102 0.29041466213503714 false 24 0.29041466213503714 true
gene 1 6 102 0.8026223805950672 false 25 0.8026223805950672 true
gene 1 8 102 -0.251385998515288 false 26 -0.251385998515288 true
gene 1 11 102 -0.2412177365878145 false 27 -0.2412177365878145 true
gene 1 14 102 0.4567303018366676 false 28 0.4567303018366676 true
gene 1 17 102 1.1396094787268711 false 29 1.1396094787268711 true
gene 1 19 102 -0.005008277523277788 false 30 -0.005008277523277788 true
gene 1 22 102 -0.37642330244823313 false 31 -0.37642330244823313 true
gene 1 25 102 0.27762121523327965 false 32 0.27762121523327965 true
gene 1 28 102 0.7414673183092506 false 33 0.7414673183092506 true
gene 1 30 102 1.123253585234282 false 34 1.123253585234282 true
gene 1 33 102 0.19319279107755133 false 35 0.19319279107755133 true
gene 1 36 102 0.2976532893443573 false 36 0.2976532893443573 true
gene 1 39 102 1.0421702894762719 false 37 1.0421702894762719 true
gene 1 41 102 0.7302741249463991 false 38 0.7302741249463991 true
gene 1 44 102 0.8102925683842805 false 39 0.8102925683842805 true
gene 1 47 102 0.9373582983581973 false 40 0.9373582983581973 true
gene 1 50 102 -0.36656565560439835 false 41 -0.36656565560439835 true
gene 1 53 102 -0.1129548658945107 false 42 -0.1129548658945107 true
gene 1 55 102 0.4160807043125039 false 43 0.4160807043125039 true
gene 1 58 102 0.9221912358491082 false 44 0.9221912358491082 true
gene 1 61 102 -1.6786937531185806 false 45 -1.6786937531185806 true
gene 1 63 102 0.010021491691861256 false 46 0.010021491691861256 true
gene 1 66 102 -0.6719778994369607 false 47 -0.6719778994369607 true
gene 1 69 102 -0.3392009660228902 false 48 -0.3392009660228902 true
gene 1 72 102 1.56252746546645 false 49 1.56252746546645 true
gene 1 75 102 0.6935475949334862 false 50 0.6935475949334862 true
gene 1 0 103 -0.9144087550041802 false 23 -0.9144087550041802 true
gene 1 3 103 0.6883098218966113 false 24 0.6883098218966113 true
gene 1 6 103 -1.152208566619838 false 25 -1.152208566619838 true
gene 1 8 103 0.16033350503347804 false 26 0.16033350503347804 true
gene 1 11 103 1.7031529816634023 false 27 1.7031529816634023 true
gene 1 14 103 -0.6319842670997906 false 28 -0.6319842670997906 true
gene 1 17 103 -0.1922031692116795 false 29 -0.1922031692116795 true
gene 1 19 103 -0.017955803374583107 false 30 -0.017955803374583107 true
gene 1 22 103 0.12593900937476205 false 31 0.12593900937476205 true
gene 1 25 103 1.0937847232883737 false 32 1.0937847232883737 true
gene 1 28 103 1.3226586652177665 false 33 1.3226586652177665 true
gene 1 30 103 0.06996198412545399 false 34 0.06996198412545399 true
gene 1 33 103 0.5491795105421584 false 35 0.5491795105421584 true
gene 1 36 103 -1.096259112675075 false 36 -1.096259112675075 true
gene 1 39 103 -1.9123215969096508 false 37 -1.9123215969096508 true
gene 1 41 103 -0.3023962902097405 false 38 -0.3023962902097405 true
gene 1 44 103 0.48807790998192396 false 39 0.48807790998192396 true
gene 1 47 103 -1.5742487269801675 false 40 -1.5742487269801675 true
gene 1 50 103 -0.20736198467783318 false 41 -0.20736198467783318 true
gene 1 53 103 0.653117892952275 false 42 0.653117892952275 true
gene 1 55 103 1.4615551715107875 false 43 1.4615551715107875 true
gene 1 58 103 2.1428329548224916 false 44 2.1428329548224916 true
gene 1 61 103 -0.12547826158914072 false 45 -0.12547826158914072 true
gene 1 63 103 -1.0754664512455092 false 46 -1.0754664512455092 true
gene 1 66 103 1.5790106183090737 false 47 1.5790106183090737 true
gene 1 69 103 -0.6464123984311725 false 48 -0.6464123984311725 true
gene 1 72 103 0.6747906535026063 false 49 0.6747906535026063 true
gene 1 75 103 1.0098680608970376 false 50 1.0098680608970376 true
gene 1 0 104 -0.327120857373976 false 23 -0.327120857373976 true
gene 1 3 104 -0.599828101688858 false 24 -0.599828101688858 true
gene 1 6 104 0.1533896822689384 false 25 0.1533896822689384 true
gene 1 8 104 0.7253389066693061 false 26 0.7253389066693061 true
gene 1 11 104 -0.8442403315720748 false 27 -0.8442403315720748 true
gene 1 14 104 -0.299973435698516 false 28 -0.299973435698516 true
gene 1 17 104 -1.8087994236221103 false 29 -1.8087994236221103 true
gene 1 19 104 1.4275237395514528 false 30 1.4275237395514528 true
gene 1 22 104 1.249285107262704 false 31 1.249285107262704 true
gene 1 25 104 0.08430610755146643 false 32 0.08430610755146643 true
gene 1 28 104 0.96611025425159 false 33 0.96611025425159 true
gene 1 30 104 -0.13037974600425292 false 34 -0.13037974600425292 true
gene 1 33 104 -1.1826694287171267 false 35 -1.1826694287171267 true
gene 1 36 104 1.0772416756426186 false 36 1.0772416756426186 true
gene 1 39 104 0.19454456596684283 false 37 0.19454456596684283 true
gene 1 41 104 -0.02923002211037931 false 38 -0.02923002211037931 true
gene 1 44 104 -0.09567263134463891 false 39 -0.09567263134463891 true
gene 1 47 104 -0.4853620917533845 false 40 -0.4853620917533845 true
gene 1 50 104 0.3945864893563724 false 41 0.3945864893563724 true
gene 1 53 104 0.7236575137956263 false 42 0.7236575137956263 true
gene 1 55 104 -0.491315360924946 false 43 -0.491315360924946 true
gene 1 58 104 0.29308729893988217 false 44 0.29308729893988217 true
gene 1 61 104 -1.1144260550434655 false 45 -1.1144260550434655 true
gene 1 63 104 -0.507386877061837 false 46 -0.507386877061837 true
gene 1 66 104 -0.7824574422564945 false 47 -0.7824574422564945 true
gene 1 69 104 -1.3169390050673748 false 48 -1.3169390050673748 true
gene 1 72 104 -0.762577404426976 false 49 -0.762577404426976 true
gene 1 75 104 1.6712152625789067 false 50 1.6712152625789067 true
gene 1 87 102 1.3196389413122587 false 51 1.3196389413122587 true
gene 1 87 103 0.08462683337113144 false 52 0.08462683337113144 true
gene 1 87 104 -0.5630550150238407 false 53 -0.5630550150238407 true
gene 1 87 105 -1.0558237978188734 false 54 -1.0558237978188734 true
gene 1 87 106 0.6703251130031571 false 55 0.6703251130031571 true
gene 1 87 107 -0.20753882339525145 false 56 -0.20753882339525145 true
gene 1 87 108 -0.2334537339791613 false 57 -0.2334537339791613 true
gene 1 87 109 1.5889840490173166 false 58 1.5889840490173166 true
gene 1 87 110 -0.3600983214397116 false 59 -0.3600983214397116 true
gene 1 87 111 0.3170197132688793 false 60 0.3170197132688793 true
gene 1 87 112 -0.5839711035324695 false 61 -0.5839711035324695 true
gene 1 87 116 -1.0386828453862178 false 65 -1.0386828453862178 true
gene 1 90 102 0.6219210162158968 false 51 0.6219210162158968 true
gene 1 90 103 0.8252264127681221 false 52 0.8252264127681221 true
gene 1 90 104 0.7931775641470418 false 53 0.7931775641470418 true
gene 1 90 105 -0.6806639734247013 false 54 -0.6806639734247013 true
gene 1 90 106 -0.5570854738329769 false 55 -0.5570854738329769 true
gene 1 90 107 0.13247445283016873 false 56 0.13247445283016873 true
gene 1 90 108 -0.12677140603456832 false 57 -0.12677140603456832 true
gene 1 90 109 1.9250616910652876 false 58 1.9250616910652876 true
gene 1 90 110 0.8381486969151731 false 59 0.8381486969151731 true
gene 1 90 111 -0.7945740530081797 false 60 -0.7945740530081797 true
gene 1 90 112 0.698957817744953 false 61 0.698957817744953 true
gene 1 90 116 -0.8292001101981534 false 65 -0.8292001101981534 true
gene 1 91 102 -1.1974920686485007 false 51 -1.1974920686485007 true
gene 1 91 103 0.19113811073675274 false 52 0.19113811073675274 true
gene 1 91 104 0.2651472356456652 false 53 0.2651472356456652 true
gene 1 91 105 -0.46588922435165087 false 54 -0.46588922435165087 true
gene 1 91 106 -0.06708275182940915 false 55 -0.06708275182940915 true
gene 1 91 107 -0.053072588996968775 false 56 -0.053072588996968775 true
gene 1 91 108 0.35288422224233107 false 57 0.35288422224233107 true
gene 1 91 109 -0.3587058929067315 false 58 -0.3587058929067315 true
gene 1 91 110 -0.19905631932834544 false 59 -0.19905631932834544 true
gene 1 91 111 0.18132894533289806 false 60 0.18132894533289806 true
gene 1 91 112 -0.12087163135097101 false 61 -0.12087163135097101 true
gene 1 91 116 -0.9551696315578396 false 65 -0.9551696315578396 true
gene 1 92 103 0.3992416326328068 false 52 0.3992416326328068 true
gene 1 93 103 -0.16674951320261036 false 52 -0.16674951320261036 true
gene 1 94 105 1.075901281137777 false 54 1.075901281137777 true
gene 1 94 107 0.16993740183421518 false 56 0.16993740183421518 true
gene 1 94 112 1.0124177266070589 false 61 1.0124177266070589 true
gene 1 72 118 1.3956610311577182 false 62 1.3956610311577182 true
gene 1 118 103 1.082681871885293 false 63 1.082681871885293 true
gene 1 69 139 -0.21815716395688342 false 116 -0.21815716395688342 true
gene 1 139 103 1.1689335023847793 false 117 1.1689335023847793 true
gene 1 91 142 0.41501644118922804 false 123 0.41501644118922804 true
gene 1 142 112 0.014847404386406457 false 124 0.014847404386406457 true
gene 1 7 111 -6.524394663906047 false 135 -6.524394663906047 true
gene 1 90 168 -0.01661792453721997 false 190 -0.01661792453721997 true
gene 1 168 116 -3.715835733418084 false 191 -3.715835733418084 true
gene 1 116 110 2.229443567451712 false 207 2.229443567451712 true
gene 1 87 195 1.0234095450210092 false 256 1.0234095450210092 true
gene 1 195 106 -0.13549633760451613 false 257 -0.13549633760451613 true
gene 1 25 202 0.20977192814891993 false 274 0.20977192814891993 true
gene 1 202 103 -0.23592000338376304 false 275 -0.23592000338376304 true
gene 1 6 285 0.577297945053222 false 481 0.577297945053222 true
gene 1 285 103 -1.093718086951872 false 482 -1.093718086951872 true
gene 1 98 304 1 false 523 0 true
gene 1 304 109 2.4613501226325196 false 524 0 true
genomeend 11