genomestart 14
trait 1 0.1 0 0 0 0 0 0 0
node 0 1 1 1 NullActivation
node 1 1 1 1 NullActivation
node 2 1 1 1 NullActivation
node 3 1 1 1 NullActivation
node 4 1 1 1 NullActivation
node 5 1 1 1 NullActivation
node 6 1 1 1 NullActivation
node 7 1 1 1 NullActivation
node 8 1 1 1 NullActivation
node 9 1 1 1 NullActivation
node 10 1 1 1 NullActivation
node 11 1 1 1 NullActivation
node 12 1 1 1 NullActivation
node 13 1 1 1 NullActivation
node 14 1 1 1 NullActivation
node 15 1 1 1 NullActivation
node 16 1 1 1 NullActivation
node 17 1 1 1 NullActivation
node 18 1 1 1 NullActivation
node 19 1 1 1 NullActivation
node 20 1 1 1 NullActivation
node 21 1 1 1 NullActivation
node 22 1 1 1 NullActivation
node 23 1 1 1 NullActivation
node 24 1 1 1 NullActivation
node 25 1 1 1 NullActivation
node 26 1 1 1 NullActivation
node 27 1 1 1 NullActivation
node 28 1 1 1 NullActivation
node 29 1 1 1 NullActivation
node 30 1 1 1 NullActivation
node 31 1 1 1 NullActivation
node 32 1 1 1 NullActivation
node 33 1 1 1 NullActivation
node 34 1 1 1 NullActivation
node 35 1 1 1 NullActivation
node 36 1 1 1 NullActivation
node 37 1 1 1 NullActivation
node 38 1 1 1 NullActivation
node 39 1 1 1 NullActivation
node 40 1 1 1 NullActivation
node 41 1 1 1 NullActivation
node 42 1 1 1 NullActivation
node 43 1 1 1 NullActivation
node 44 1 1 1 NullActivation
node 45 1 1 1 NullActivation
node 46 1 1 1 NullActivation
node 47 1 1 1 NullActivation
node 48 1 1 1 NullActivation
node 49 1 1 1 NullActivation
node 50 1 1 1 NullActivation
node 51 1 1 1 NullActivation
node 52 1 1 1 NullActivation
node 53 1 1 1 NullActivation
node 54 1 1 1 NullActivation
node 55 1 1 1 NullActivation
node 56 1 1 1 NullActivation
node 57 1 1 1 NullActivation
node 58 1 1 1 NullActivation
node 59 1 1 1 NullActivation
node 60 1 1 1 NullActivation
node 61 1 1 1 NullActivation
node 62 1 1 1 NullActivation
node 63 1 1 1 NullActivation
node 64 1 1 1 NullActivation
node 65 1 1 1 NullActivation
node 66 1 1 1 NullActivation
node 67 1 1 1 NullActivation
node 68 1 1 1 NullActivation
node 69 1 1 1 NullActivation
node 70 1 1 1 NullActivation
node 71 1 1 1 NullActivation
node 72 1 1 1 NullActivation
node 73 1 1 1 NullActivation
node 74 1 1 1 NullActivation
node 75 1 1 1 NullActivation
node 76 1 1 1 NullActivation
node 77 1 1 1 NullActivation
node 78 1 1 1 NullActivation
node 79 1 1 1 NullActivation
node 80 1 1 1 NullActivation
node 81 1 1 1 NullActivation
node 82 1 1 1 NullActivation
node 83 1 1 1 NullActivation
node 84 1 1 1 NullActivation
node 85 1 1 1 NullActivation
node 86 1 1 1 NullActivation
node 87 1 1 1 NullActivation
node 88 1 1 1 NullActivation
node 89 1 1 1 NullActivation
node 90 1 1 1 NullActivation
node 91 1 1 1 NullActivation
node 92 1 1 1 NullActivation
node 93 1 1 1 NullActivation
node 94 1 1 1 NullActivation
node 95 1 1 1 NullActivation
node 96 1 1 1 NullActivation
node 97 1 1 1 NullActivation
node 98 1 1 1 NullActivation
node 99 1 1 1 NullActivation
node 100 1 1 1 NullActivation
node 101 1 1 1 NullActivation
node 102 1 0 2 SigmoidSteepenedActivation
node 103 1 0 2 SigmoidSteepenedActivation
node 104 1 0 2 SigmoidSteepenedActivation
node 105 1 0 2 SigmoidSteepenedActivation
node 106 1 0 2 SigmoidSteepenedActivation
node 107 1 0 2 SigmoidSteepenedActivation
node 108 1 0 2 SigmoidSteepenedActivation
node 109 1 0 2 SigmoidSteepenedActivation
node 110 1 0 2 SigmoidSteepenedActivation
node 111 1 0 2 SigmoidSteepenedActivation
node 112 1 0 2 SigmoidSteepenedActivation
node 113 1 0 2 SigmoidSteepenedActivation
node 114 1 0 2 SigmoidSteepenedActivation
node 115 1 0 2 SigmoidSteepenedActivation
node 116 1 0 2 SigmoidSteepenedActivation
node 162 1 0 0 SigmoidSteepenedActivation
node 289 1 0 0 SigmoidSteepenedActivation
gene 1 89 102 -2.04817723899776 false 1 -2.04817723899776 true
gene 1 89 103 -0.839908438245414 false 2 -0.839908438245414 true
gene 1 89 104 -0.36890892788403884 false 3 -0.36890892788403884 true
gene 1 89 105 0.8115069813951852 false 4 0.8115069813951852 true
gene 1 89 106 1.257077962420028 false 5 1.257077962420028 true
gene 1 89 107 -2.089568557067395 false 6 -2.089568557067395 true
gene 1 89 108 0.2256205507867762 false 7 0.2256205507867762 true
gene 1 89 109 0.8769066976485929 false 8 0.8769066976485929 true
gene 1 89 110 1.5322278394087132 false 9 1.5322278394087132 true
gene 1 89 111 -2.870907225098388 false 10 -2.870907225098388 true
gene 1 89 112 -1.2994824519175545 false 11 -1.2994824519175545 true
gene 1 89 113 -3.284159722464336 false 12 -3.284159722464336 true
gene 1 89 114 -3.6351611548542904 false 13 -3.6351611548542904 true
gene 1 89 115 0.0013382352736620584 false 14 0.0013382352736620584 true
gene 1 89 116 -2.719820059259379 false 15 -2.719820059259379 true
gene 1 95 106 -1.7266603694210008 false 16 -1.7266603694210008 true
gene 1 96 107 -1.0117756262281117 false 17 -1.0117756262281117 true
gene 1 97 108 -0.8018969732843664 false 18 -0.8018969732843664 true
gene 1 98 109 -2.3725471679196035 false 19 -2.3725471679196035 true
gene 1 99 110 -2.2813200858764535 false 20 -2.2813200858764535 true
gene 1 100 111 3.380978709889368 false 21 3.380978709889368 true
gene 1 101 112 -1.599698727184164 false 22 -1.599698727184164 true
gene 1 114 111 0.744339303577074 false 60 0.744339303577074 true
gene 1 36 102 2.3636120902225626 false 136 2.3636120902225626 true
gene 1 36 103 -7.3044489423174035 false 137 -7.3044489423174035 true
gene 1 36 104 -0.9694406786605199 false 138 -0.9694406786605199 true
gene 1 36 105 -8.435506360740003 false 139 -8.435506360740003 true
gene 1 36 106 -1.0986963766465094 false 140 -1.0986963766465094 true
gene 1 36 107 -8.034665599343386 false 141 -8.034665599343386 true
gene 1 36 108 4.68733288820925 false 142 4.68733288820925 true
gene 1 36 109 0.21479857357835597 false 143 0.21479857357835597 true
gene 1 36 110 10.540429522088253 false 144 10.540429522088253 true
gene 1 36 111 4.382833247160589 false 145 4.382833247160589 true
gene 1 36 112 1.5380356376681164 false 146 1.5380356376681164 true
gene 1 36 113 0.7345110230495703 false 147 0.7345110230495703 true
gene 1 36 114 -0.21609147330121053 false 148 -0.21609147330121053 true
gene 1 36 115 0.7962698701885721 false 149 0.7962698701885721 true
gene 1 36 116 -1.0192887611739694 false 150 -1.0192887611739694 true
gene 1 116 111 0.19246078021181445 false 229 0.19246078021181445 true
gene 1 82 107 -1.6450804888910007 false 303 -1.6450804888910007 true
gene 1 18 110 3.875571236349524 false 330 3.875571236349524 true
gene 1 83 114 -1.8906604686237367 false 422 -1.8906604686237367 true
gene 1 10 114 -1.2203347775916034 false 471 -1.2203347775916034 true
gene 1 51 115 1.3574643300705516 false 492 1.3574643300705516 true
gene 1 47 102 8.755689159536711 false 513 8.755689159536711 true
gene 1 47 103 -0.5623115735449753 false 514 -0.5623115735449753 true
gene 1 47 104 -8.061538674079303 false 515 -8.061538674079303 true
gene 1 47 105 1.0899472905776846 false 516 1.0899472905776846 true
gene 1 47 106 0.3805031924900656 false 517 0.3805031924900656 true
gene 1 47 107 -2.9644521466553937 false 518 -2.9644521466553937 true
gene 1 47 108 -0.7168061779417128 false 519 -0.7168061779417128 true
gene 1 47 109 -0.221820610504336 false 520 -0.221820610504336 true
gene 1 47 110 -1.6695184855252925 false 521 -1.6695184855252925 true
gene 1 47 111 -8.400217057529133 false 522 -8.400217057529133 true
gene 1 47 112 0.8168056866937936 false 523 0.8168056866937936 true
gene 1 47 113 -1.0968389043405553 false 524 -1.0968389043405553 true
gene 1 47 114 1.6400125496648683 false 525 1.6400125496648683 true
gene 1 47 115 2.404703355313525 false 526 2.404703355313525 true
gene 1 47 116 -0.19837737064793654 false 527 -0.19837737064793654 true
gene 1 0 108 -2.4268812426714823 false 623 -2.4268812426714823 true
gene 1 54 113 4.25561070325973 false 719 4.25561070325973 true
gene 1 33 112 -2.0433831050334117 false 727 -2.0433831050334117 true
gene 1 64 114 -0.4782937529882637 false 772 -0.4782937529882637 true
gene 1 1 116 -9.372357245797694 false 818 -9.372357245797694 true
gene 1 47 162 -0.18392654371640993 false 870 -0.18392654371640993 true
gene 1 162 102 10.320307113309742 false 871 10.320307113309742 true
gene 1 109 110 0.10395556923865429 false 914 0.10395556923865429 true
gene 1 87 111 2.2406506662507413 false 983 2.2406506662507413 true
gene 1 90 109 -9.611889724466206 false 995 -9.611889724466206 true
gene 1 105 106 -0.052783769458639634 false 1064 -0.052783769458639634 true
gene 1 81 115 -0.41857826124370007 false 1146 -0.41857826124370007 true
gene 1 97 116 -2.070275864313707 false 1178 -2.070275864313707 true
gene 1 11 103 -0.35897423400435535 false 1218 -0.35897423400435535 true
gene 1 88 106 -9.391158756288178 false 1235 -9.391158756288178 true
gene 1 70 111 4.90384896764124 false 1284 4.90384896764124 true
gene 1 2 102 1.2174164194600379 false 1319 1.2174164194600379 true
gene 1 38 109 1.3499405391384518 false 1345 1.3499405391384518 true
gene 1 27 108 -3.51669140082939 false 1420 -3.51669140082939 true
gene 1 16 114 -7.323840299154316 false 1441 -7.323840299154316 true
gene 1 48 113 0.23443601408727535 false 1504 0.23443601408727535 true
gene 1 10 102 -1.3453691809447808 false 1523 -1.3453691809447808 true
gene 1 56 162 -4.377805396593143 false 1628 -4.377805396593143 true
gene 1 29 102 9.446432697001457 false 1648 9.446432697001457 true
gene 1 29 103 -0.7206564382452902 false 1649 -0.7206564382452902 true
gene 1 29 104 -1.9049639642893514 false 1650 -1.9049639642893514 true
gene 1 29 105 0.7833890296091428 false 1651 0.7833890296091428 true
gene 1 29 106 3.650356200155249 false 1652 3.650356200155249 true
gene 1 29 107 5.572930992706908 false 1653 5.572930992706908 true
gene 1 29 108 -1.1860338324324298 false 1654 -1.1860338324324298 true
gene 1 29 109 4.799207765091619 false 1655 4.799207765091619 true
gene 1 29 110 -0.3792130079387248 false 1656 -0.3792130079387248 true
gene 1 29 111 0.6538881710278325 false 1657 0.6538881710278325 true
gene 1 29 112 -0.32987168763742797 false 1658 -0.32987168763742797 true
gene 1 29 113 2.3755322440667603 false 1659 2.3755322440667603 true
gene 1 29 114 -7.655151871831725 false 1660 -7.655151871831725 true
gene 1 29 115 2.9940471954771857 false 1661 2.9940471954771857 true
gene 1 29 116 -7.578614809916671 false 1662 -7.578614809916671 true
gene 1 29 162 -0.3735482364505174 false 1663 -0.3735482364505174 true
gene 1 95 105 -4.150838690500859 false 1711 -4.150838690500859 true
gene 1 48 116 -1.3036226605297094 false 1743 -1.3036226605297094 true
gene 1 65 109 8.797399768427365 false 1864 8.797399768427365 true
gene 1 75 106 -5.511548806044756 false 1875 -5.511548806044756 true
gene 1 68 111 -0.8704560998558974 false 1894 -0.8704560998558974 true
gene 1 50 111 -1.5756765247905675 false 1941 -1.5756765247905675 true
gene 1 65 112 4.532308359281265 false 2060 4.532308359281265 true
gene 1 44 115 0.1370450085333877 false 2074 0.1370450085333877 true
gene 1 72 115 1.3873009643297634 false 2151 1.3873009643297634 true
gene 1 55 111 -8.819861267159787 false 2216 -8.819861267159787 true
gene 1 84 106 8.758299267971708 false 2457 8.758299267971708 true
gene 1 59 104 -3.8542040653957423 false 2533 -3.8542040653957423 true
gene 1 21 113 0.21096193843617633 false 2555 0.21096193843617633 true
gene 1 14 111 -0.2842052850598094 false 2735 -0.2842052850598094 true
gene 1 72 110 0.26324947399120313 false 2792 0.26324947399120313 true
gene 1 109 116 0.021841618096687124 false 2846 0.021841618096687124 true
gene 1 93 102 0.6723387622210486 false 2883 0.6723387622210486 true
gene 1 46 162 -0.05415062363151475 false 2927 -0.05415062363151475 true
gene 1 18 115 -0.30502515786068873 false 3042 -0.30502515786068873 true
gene 1 84 105 -7.599033886040522 false 3276 -7.599033886040522 true
gene 1 35 116 2.326657339176191 false 3308 2.326657339176191 true
gene 1 87 110 7.845792230701295 false 3404 7.845792230701295 true
gene 1 65 116 0.14193716538527168 false 3571 0.14193716538527168 true
gene 1 23 102 -0.4952824643214655 false 3599 -0.4952824643214655 true
gene 1 35 108 -1.6933793707446436 false 3613 -1.6933793707446436 true
gene 1 116 102 9.208297158718096 false 3638 9.208297158718096 true
gene 1 52 110 2.409391236636163 false 3707 2.409391236636163 true
gene 1 103 107 1.6365787277429507 false 3755 1.6365787277429507 true
gene 1 36 289 0.8485684927083322 false 3816 0.34856849270833223 true
gene 1 289 111 4.252665892037373 false 3817 2.201300183241534 true
gene 1 91 103 -8.53220248302695 false 3910 -8.53220248302695 true
genomeend 14
