genomestart 44
trait 1 0.1 0 0 0 0 0 0 0
node 0 1 1 1 NullActivation
node 1 1 1 1 NullActivation
node 2 1 1 1 NullActivation
node 3 1 1 1 NullActivation
node 4 1 1 1 NullActivation
node 5 1 1 1 NullActivation
node 6 1 1 1 NullActivation
node 7 1 1 1 NullActivation
node 8 1 1 1 NullActivation
node 9 1 1 1 NullActivation
node 10 1 1 1 NullActivation
node 11 1 1 1 NullActivation
node 12 1 1 1 NullActivation
node 13 1 1 1 NullActivation
node 14 1 1 1 NullActivation
node 15 1 1 1 NullActivation
node 16 1 1 1 NullActivation
node 17 1 1 1 NullActivation
node 18 1 1 1 NullActivation
node 19 1 1 1 NullActivation
node 20 1 1 1 NullActivation
node 21 1 1 1 NullActivation
node 22 1 1 1 NullActivation
node 23 1 1 1 NullActivation
node 24 1 1 1 NullActivation
node 25 1 1 1 NullActivation
node 26 1 1 1 NullActivation
node 27 1 1 1 NullActivation
node 28 1 1 1 NullActivation
node 29 1 1 1 NullActivation
node 30 1 1 1 NullActivation
node 31 1 1 1 NullActivation
node 32 1 1 1 NullActivation
node 33 1 1 1 NullActivation
node 34 1 1 1 NullActivation
node 35 1 1 1 NullActivation
node 36 1 1 1 NullActivation
node 37 1 1 1 NullActivation
node 38 1 1 1 NullActivation
node 39 1 1 1 NullActivation
node 40 1 1 1 NullActivation
node 41 1 1 1 NullActivation
node 42 1 1 1 NullActivation
node 43 1 1 1 NullActivation
node 44 1 1 1 NullActivation
node 45 1 1 1 NullActivation
node 46 1 1 1 NullActivation
node 47 1 1 1 NullActivation
node 48 1 1 1 NullActivation
node 49 1 1 1 NullActivation
node 50 1 1 1 NullActivation
node 51 1 1 1 NullActivation
node 52 1 1 1 NullActivation
node 53 1 1 1 NullActivation
node 54 1 1 1 NullActivation
node 55 1 1 1 NullActivation
node 56 1 1 1 NullActivation
node 57 1 1 1 NullActivation
node 58 1 1 1 NullActivation
node 59 1 1 1 NullActivation
node 60 1 1 1 NullActivation
node 61 1 1 1 NullActivation
node 62 1 1 1 NullActivation
node 63 1 1 1 NullActivation
node 64 1 1 1 NullActivation
node 65 1 1 1 NullActivation
node 66 1 1 1 NullActivation
node 67 1 1 1 NullActivation
node 68 1 1 1 NullActivation
node 69 1 1 1 NullActivation
node 70 1 1 1 NullActivation
node 71 1 1 1 NullActivation
node 72 1 1 1 NullActivation
node 73 1 1 1 NullActivation
node 74 1 1 1 NullActivation
node 75 1 1 1 NullActivation
node 76 1 1 1 NullActivation
node 77 1 1 1 NullActivation
node 78 1 1 1 NullActivation
node 79 1 1 1 NullActivation
node 80 1 1 1 NullActivation
node 81 1 1 1 NullActivation
node 82 1 1 1 NullActivation
node 83 1 1 1 NullActivation
node 84 1 1 1 NullActivation
node 85 1 1 1 NullActivation
node 86 1 1 1 NullActivation
node 87 1 1 1 NullActivation
node 88 1 1 1 NullActivation
node 89 1 1 1 NullActivation
node 90 1 1 1 NullActivation
node 91 1 1 1 NullActivation
node 92 1 1 1 NullActivation
node 93 1 1 1 NullActivation
node 94 1 1 1 NullActivation
node 95 1 1 1 NullActivation
node 96 1 1 1 NullActivation
node 97 1 1 1 NullActivation
node 98 1 1 1 NullActivation
node 99 1 1 1 NullActivation
node 100 1 1 1 NullActivation
node 101 1 1 1 NullActivation
node 102 1 0 2 SigmoidSteepenedActivation
node 103 1 0 2 SigmoidSteepenedActivation
node 104 1 0 2 SigmoidSteepenedActivation
node 105 1 0 2 SigmoidSteepenedActivation
node 106 1 0 2 SigmoidSteepenedActivation
node 107 1 0 2 SigmoidSteepenedActivation
node 108 1 0 2 SigmoidSteepenedActivation
node 109 1 0 2 SigmoidSteepenedActivation
node 110 1 0 2 SigmoidSteepenedActivation
node 111 1 0 2 SigmoidSteepenedActivation
node 112 1 0 2 SigmoidSteepenedActivation
node 113 1 0 2 SigmoidSteepenedActivation
node 114 1 0 2 SigmoidSteepenedActivation
node 115 1 0 2 SigmoidSteepenedActivation
node 116 1 0 2 SigmoidSteepenedActivation
node 124 1 0 0 SigmoidSteepenedActivation
node 234 1 0 0 SigmoidSteepenedActivation
node 269 1 0 0 SigmoidSteepenedActivation
node 291 1 0 0 SigmoidSteepenedActivation
node 303 1 0 0 SigmoidSteepenedActivation
node 398 1 0 0 SigmoidSteepenedActivation
node 433 1 0 0 SigmoidSteepenedActivation
node 509 1 0 0 SigmoidSteepenedActivation
node 512 1 0 0 SigmoidSteepenedActivation
node 524 1 0 0 SigmoidSteepenedActivation
node 585 1 0 0 SigmoidSteepenedActivation
node 589 1 0 0 SigmoidSteepenedActivation
node 608 1 0 0 SigmoidSteepenedActivation
node 618 1 0 0 SigmoidSteepenedActivation
node 632 1 0 0 SigmoidSteepenedActivation
node 707 1 0 0 SigmoidSteepenedActivation
node 726 1 0 0 SigmoidSteepenedActivation
node 744 1 0 0 SigmoidSteepenedActivation
node 746 1 0 0 SigmoidSteepenedActivation
node 764 1 0 0 SigmoidSteepenedActivation
node 827 1 0 0 SigmoidSteepenedActivation
node 850 1 0 0 SigmoidSteepenedActivation
node 874 1 0 0 SigmoidSteepenedActivation
node 911 1 0 0 SigmoidSteepenedActivation
node 940 1 0 0 SigmoidSteepenedActivation
node 991 1 0 0 SigmoidSteepenedActivation
node 1001 1 0 0 SigmoidSteepenedActivation
node 1026 1 0 0 SigmoidSteepenedActivation
node 1051 1 0 0 SigmoidSteepenedActivation
node 1074 1 0 0 SigmoidSteepenedActivation
node 1142 1 0 0 SigmoidSteepenedActivation
node 1226 1 0 0 SigmoidSteepenedActivation
node 1267 1 0 0 SigmoidSteepenedActivation
node 1295 1 0 0 SigmoidSteepenedActivation
node 1352 1 0 0 SigmoidSteepenedActivation
gene 1 95 106 0.799754255554363 false 16 0.799754255554363 true
gene 1 96 107 0.36300165182220445 false 17 0.36300165182220445 true
gene 1 97 108 -0.1281570277361712 false 18 -0.1281570277361712 true
gene 1 98 109 2.947890459881975 false 19 2.947890459881975 true
gene 1 99 110 0.24101241399831239 false 20 0.24101241399831239 true
gene 1 100 111 -0.5776525480433372 false 21 -0.5776525480433372 true
gene 1 101 112 0.41096549031119656 false 22 0.41096549031119656 true
gene 1 0 102 -0.44983871409387155 false 23 -0.44983871409387155 true
gene 1 3 102 1.8031830864706846 false 24 1.8031830864706846 true
gene 1 6 102 0.5969623789774794 false 25 0.5969623789774794 true
gene 1 8 102 1.006510394653972 false 26 1.006510394653972 true
gene 1 11 102 0.46623744866567945 false 27 0.46623744866567945 true
gene 1 14 102 1.6286135550585206 false 28 1.6286135550585206 true
gene 1 17 102 0.5329036669656166 false 29 0.5329036669656166 true
gene 1 19 102 1.7376873190146056 false 30 1.7376873190146056 true
gene 1 22 102 0.4780914000057672 false 31 0.4780914000057672 true
gene 1 25 102 -0.46654554849685365 false 32 -0.46654554849685365 true
gene 1 28 102 0.5166864515349843 false 33 0.5166864515349843 true
gene 1 30 102 0.013213715321331032 false 34 0.013213715321331032 true
gene 1 33 102 -1.4535075496961323 false 35 -1.4535075496961323 true
gene 1 36 102 0.5793200126969429 false 36 0.5793200126969429 true
gene 1 39 102 -0.38929292104906105 false 37 -0.38929292104906105 true
gene 1 41 102 1.4735595642123795 false 38 1.4735595642123795 true
gene 1 44 102 0.7323469161573082 false 39 0.7323469161573082 true
gene 1 47 102 1.250500438524682 false 40 1.250500438524682 true
gene 1 50 102 -0.36624925913261097 false 41 -0.36624925913261097 true
gene 1 53 102 0.676733460139358 false 42 0.676733460139358 true
gene 1 55 102 -0.9968772143620628 false 43 -0.9968772143620628 true
gene 1 58 102 0.8338825581725565 false 44 0.8338825581725565 true
gene 1 61 102 0.1661743052957547 false 45 0.1661743052957547 true
gene 1 63 102 -0.9034639721421915 false 46 -0.9034639721421915 true
gene 1 66 102 2.0544870761851355 false 47 2.0544870761851355 true
gene 1 69 102 0.5724846715567039 false 48 0.5724846715567039 true
gene 1 72 102 1.6540003222309254 false 49 1.6540003222309254 true
gene 1 75 102 0.21007273797347162 false 50 0.21007273797347162 true
gene 1 0 103 -0.6216904340536404 false 23 -0.6216904340536404 true
gene 1 3 103 2.272328407942294 false 24 2.272328407942294 true
gene 1 6 103 -1.814330383854938 false 25 -1.814330383854938 true
gene 1 8 103 -1.5832606640332378 false 26 -1.5832606640332378 true
gene 1 11 103 0.22955826869650514 false 27 0.22955826869650514 true
gene 1 14 103 -2.0373767677461907 false 28 -2.0373767677461907 true
gene 1 17 103 0.3407296869096459 false 29 0.3407296869096459 true
gene 1 19 103 1.121368765314242 false 30 1.121368765314242 true
gene 1 22 103 0.24826428329878839 false 31 0.24826428329878839 true
gene 1 25 103 1.6937141409181309 false 32 1.6937141409181309 true
gene 1 28 103 0.8475781491435224 false 33 0.8475781491435224 true
gene 1 30 103 0.261345506243803 false 34 0.261345506243803 true
gene 1 33 103 1.1693446006413302 false 35 1.1693446006413302 true
gene 1 36 103 0.3371000784585957 false 36 0.3371000784585957 true
gene 1 39 103 1.4930788162556252 false 37 1.4930788162556252 true
gene 1 41 103 -0.40494955443448266 false 38 -0.40494955443448266 true
gene 1 44 103 2.139290794432725 false 39 2.139290794432725 true
gene 1 47 103 0.32660345588232514 false 40 0.32660345588232514 true
gene 1 50 103 -0.7302183725428903 false 41 -0.7302183725428903 true
gene 1 53 103 -2.0296785867765426 false 42 -2.0296785867765426 true
gene 1 55 103 1.8639831658237869 false 43 1.8639831658237869 true
gene 1 58 103 0.505076870525375 false 44 0.505076870525375 true
gene 1 61 103 -0.14874235594444132 false 45 -0.14874235594444132 true
gene 1 63 103 0.7739063738792514 false 46 0.7739063738792514 true
gene 1 66 103 -0.8143941243705817 false 47 -0.8143941243705817 true
gene 1 69 103 0.5469529090801033 false 48 0.5469529090801033 true
gene 1 72 103 -0.635302020948729 false 49 -0.635302020948729 true
gene 1 75 103 -0.8810579146244758 false 50 -0.8810579146244758 true
gene 1 0 104 -0.17670986633102853 false 23 -0.17670986633102853 true
gene 1 3 104 0.742249655854301 false 24 0.742249655854301 true
gene 1 6 104 0.12889602923588075 false 25 0.12889602923588075 true
gene 1 8 104 -0.6811284710256857 false 26 -0.6811284710256857 true
gene 1 11 104 2.1122166684227253 false 27 2.1122166684227253 true
gene 1 14 104 2.517796634624993 false 28 2.517796634624993 true
gene 1 17 104 1.4389609310126068 false 29 1.4389609310126068 true
gene 1 19 104 0.6968190635160231 false 30 0.6968190635160231 true
gene 1 22 104 0.0166040151588393 false 31 0.0166040151588393 true
gene 1 25 104 1.7472055893486125 false 32 1.7472055893486125 true
gene 1 28 104 -0.2951871526240035 false 33 -0.2951871526240035 true
gene 1 30 104 -0.5332666287667641 false 34 -0.5332666287667641 true
gene 1 33 104 0.0791218925606065 false 35 0.0791218925606065 true
gene 1 36 104 0.12185862617371705 false 36 0.12185862617371705 true
gene 1 39 104 -0.9945077136893825 false 37 -0.9945077136893825 true
gene 1 41 104 -0.18111538617336154 false 38 -0.18111538617336154 true
gene 1 44 104 0.37283275921793935 false 39 0.37283275921793935 true
gene 1 47 104 1.3630588270526838 false 40 1.3630588270526838 true
gene 1 50 104 0.424205365620936 false 41 0.424205365620936 true
gene 1 53 104 0.585793345385315 false 42 0.585793345385315 true
gene 1 55 104 -2.6732283744371026 false 43 -2.6732283744371026 true
gene 1 58 104 0.23125429979554007 false 44 0.23125429979554007 true
gene 1 61 104 0.8615397195370638 false 45 0.8615397195370638 true
gene 1 63 104 -0.43162306032414527 false 46 -0.43162306032414527 true
gene 1 66 104 0.39360855984141907 false 47 0.39360855984141907 true
gene 1 69 104 0.8859251914313326 false 48 0.8859251914313326 true
gene 1 72 104 -1.1411162353447961 false 49 -1.1411162353447961 true
gene 1 75 104 0.11860530135629832 false 50 0.11860530135629832 true
gene 1 87 102 -2.1721159776205567 false 51 -2.1721159776205567 true
gene 1 87 103 -0.23986126113522244 false 52 -0.23986126113522244 true
gene 1 87 104 -0.43719261220482486 false 53 -0.43719261220482486 true
gene 1 87 105 -0.4702850930284958 false 54 -0.4702850930284958 true
gene 1 87 106 0.20225393037070838 false 55 0.20225393037070838 true
gene 1 87 107 -1.144141854082369 false 56 -1.144141854082369 true
gene 1 87 108 0.2460003990833771 false 57 0.2460003990833771 true
gene 1 87 109 0.15945444022884636 false 58 0.15945444022884636 true
gene 1 87 110 -0.9679581450804796 false 59 -0.9679581450804796 true
gene 1 87 111 -0.9579970680023315 false 60 -0.9579970680023315 true
gene 1 87 112 0.4390308042638672 false 61 0.4390308042638672 true
gene 1 87 116 -1.1883261359726158 false 65 -1.1883261359726158 true
gene 1 90 102 -0.0962821816951895 false 51 -0.0962821816951895 true
gene 1 90 103 -0.5005156802249844 false 52 -0.5005156802249844 true
gene 1 90 104 1.0019539541658076 false 53 1.0019539541658076 true
gene 1 90 105 -1.435978789634063 false 54 -1.435978789634063 true
gene 1 90 106 0.6400256207729226 false 55 0.6400256207729226 true
gene 1 90 107 0.14670925428113468 false 56 0.14670925428113468 true
gene 1 90 108 0.6182667310648 false 57 0.6182667310648 true
gene 1 90 109 1.6729766034547295 false 58 1.6729766034547295 true
gene 1 90 110 -0.5431638318679871 false 59 -0.5431638318679871 true
gene 1 90 111 0.31206990069100893 false 60 0.31206990069100893 true
gene 1 90 112 -0.7644586705007093 false 61 -0.7644586705007093 true
gene 1 90 116 -0.12556651802964203 false 65 -0.12556651802964203 true
gene 1 91 102 2.671324521298067 false 51 2.671324521298067 true
gene 1 91 103 -0.6220332465317404 false 52 -0.6220332465317404 true
gene 1 91 104 0.49387326056016273 false 53 0.49387326056016273 true
gene 1 91 105 0.8860337840594605 false 54 0.8860337840594605 true
gene 1 91 106 -0.08832235859889874 false 55 -0.08832235859889874 true
gene 1 91 107 0.2451298436717003 false 56 0.2451298436717003 true
gene 1 91 108 -0.37855527475767814 false 57 -0.37855527475767814 true
gene 1 91 109 0.9259331821735636 false 58 0.9259331821735636 true
gene 1 91 110 -0.7267520601765303 false 59 -0.7267520601765303 true
gene 1 91 111 1.590193085576405 false 60 1.590193085576405 true
gene 1 91 112 -0.6445092157641845 false 61 -0.6445092157641845 true
gene 1 91 116 -0.7281414395703791 false 65 -0.7281414395703791 true
gene 1 92 103 0.5190157948371384 false 52 0.5190157948371384 true
gene 1 93 103 0.8954158498007694 false 52 0.8954158498007694 true
gene 1 94 105 1.0025649291899823 false 54 1.0025649291899823 true
gene 1 94 107 -1.50927453228726 false 56 -1.50927453228726 true
gene 1 94 112 0.7295992507687784 false 61 0.7295992507687784 true
gene 1 19 124 -0.9163416846774939 false 80 -0.9163416846774939 true
gene 1 124 102 0.3224094726904761 false 81 0.3224094726904761 true
gene 1 91 234 -0.619095858433476 false 396 -0.619095858433476 true
gene 1 234 103 -0.21692076624222206 false 397 -0.21692076624222206 true
gene 1 36 113 0.21519751680890747 false 463 0.21519751680890747 true
gene 1 124 269 -0.9242786821105602 false 496 -0.9242786821105602 true
gene 1 269 102 1.1610039341809832 false 497 1.1610039341809832 true
gene 1 61 291 -2.8180303758542324 false 548 -2.8180303758542324 true
gene 1 291 103 1.2647379072297176 false 549 1.2647379072297176 true
gene 1 87 303 -1.362459795058494 false 579 -1.362459795058494 true
gene 1 303 116 -0.3497971027086795 false 580 -0.3497971027086795 true
gene 1 116 115 -1.0225789954777162 false 726 -1.0225789954777162 true
gene 1 91 398 -0.7542643157224227 false 893 -0.7542643157224227 true
gene 1 398 111 0.3199689584195833 false 894 0.3199689584195833 true
gene 1 56 115 0.00817373439704943 false 984 0.00817373439704943 true
gene 1 100 433 -0.16203786281099566 false 1012 -0.16203786281099566 true
gene 1 433 111 -0.05623056563627521 false 1013 -0.05623056563627521 true
gene 1 109 102 -0.5038251115003206 false 1042 -0.5038251115003206 true
gene 1 58 509 0.4274567337392883 false 1226 0.4274567337392883 true
gene 1 509 103 0.1431762903290809 false 1227 0.1431762903290809 true
gene 1 47 512 1.0521203680433484 false 1233 1.0521203680433484 true
gene 1 512 103 -1.896323868770465 false 1234 -1.896323868770465 true
gene 1 50 524 1.3685395897520274 false 1268 1.3685395897520274 true
gene 1 524 102 1.069862611967069 false 1269 1.069862611967069 true
gene 1 512 269 -0.3030892888315295 false 1301 -0.3030892888315295 true
gene 1 97 585 -1.3531075131965562 false 1486 -1.3531075131965562 true
gene 1 585 108 1.7131668934500026 false 1487 1.7131668934500026 true
gene 1 39 589 -0.19858206153723557 false 1496 -0.19858206153723557 true
gene 1 589 103 -0.32658573040495653 false 1497 -0.32658573040495653 true
gene 1 63 608 -1.7678411958531077 false 1543 -1.7678411958531077 true
gene 1 608 102 1.1669996400358902 false 1544 1.1669996400358902 true
gene 1 90 618 0.0650013740531504 false 1566 0.0650013740531504 true
gene 1 618 116 -1.8033143180981588 false 1567 -1.8033143180981588 true
gene 1 95 109 0.22705618800390515 false 1585 0.22705618800390515 true
gene 1 87 632 0.19800968655057244 false 1626 0.19800968655057244 true
gene 1 632 110 -0.17276935840479718 false 1627 -0.17276935840479718 true
gene 1 45 589 0.7838811162874253 false 1751 0.7838811162874253 true
gene 1 87 707 1.0135065385016424 false 1848 1.0135065385016424 true
gene 1 707 102 -0.35670751711985965 false 1849 -0.35670751711985965 true
gene 1 11 726 -0.30178368611111916 false 1924 -0.30178368611111916 true
gene 1 726 103 0.010370446563601334 false 1925 0.010370446563601334 true
gene 1 28 744 1.1634751938639702 false 1967 1.1634751938639702 true
gene 1 744 103 -1.4099608969615658 false 1968 -1.4099608969615658 true
gene 1 0 746 -1.5704014248576044 false 1975 -1.5704014248576044 true
gene 1 746 102 1.2987337374503047 false 1976 1.2987337374503047 true
gene 1 116 112 -0.08109288674736108 false 1979 -0.08109288674736108 true
gene 1 89 106 0.22590424063116604 false 2046 0.22590424063116604 true
gene 1 0 764 0.3162953441504298 false 2055 0.3162953441504298 true
gene 1 764 104 -0.5115695992274333 false 2056 -0.5115695992274333 true
gene 1 303 827 -0.37008251779792745 false 2241 -0.37008251779792745 true
gene 1 827 116 -2.0006708684940184 false 2242 -2.0006708684940184 true
gene 1 17 850 0.3799428940528221 false 2299 0.37994289405282194 true
gene 1 850 102 0.6034266140766948 false 2300 0.6034266140766948 true
gene 1 48 234 0.2632636730195669 false 2357 0.2632636730195669 true
gene 1 11 874 -0.6586253107859822 false 2394 -0.6586253107859823 true
gene 1 874 104 0.3458171029706998 false 2395 0.3458171029706998 true
gene 1 11 911 0.621412681804892 false 2505 0.621412681804892 true
gene 1 911 726 -0.7037155887292306 false 2506 -0.7037155887292306 true
gene 1 82 105 -0.9589241070337713 false 2573 -0.9589241070337713 true
gene 1 92 940 0.4249368594932499 false 2607 0.42493685949324134 true
gene 1 940 103 0.4538336963739846 false 2608 0.45383369637397913 true
gene 1 19 115 -1.463268989133027 false 2611 -1.463268989133027 true
gene 1 31 115 1.1060354723391204 false 2703 1.1060354723391204 true
gene 1 50 991 -0.02794724036862248 false 2756 -0.027947240368756236 true
gene 1 991 104 -1.1984870734158768 false 2757 -1.1984870734158768 true
gene 1 97 1001 0.48599008946303107 false 2781 0.48599008946303107 true
gene 1 1001 585 0.03309396765203139 false 2782 0.03309396765454897 true
gene 1 58 433 0.31350903792465357 false 2821 0.31350903792465357 true
gene 1 46 291 -0.37668675638110083 false 2850 -0.37668675638110083 true
gene 1 827 1026 0.005052585558217772 false 2871 0.005052585558217772 true
gene 1 1026 116 -0.1401905405241997 false 2872 -0.1401905405241997 true
gene 1 72 1051 1.1555979878960403 false 2939 1.1555979878960403 true
gene 1 1051 103 0.3637320972755298 false 2940 0.3637320972755298 true
gene 1 47 433 -0.8633808533883958 false 3004 -0.8633808533883958 true
gene 1 39 1074 0.01989185629110081 false 3014 0.019891426589426744 true
gene 1 1074 103 0.912247611810638 false 3015 0.9122472579929222 true
gene 1 87 1142 -0.4660586939469729 false 3206 -0.46606398473922317 true
gene 1 1142 707 0.5574788070948115 false 3207 0.557478456211715 true
gene 1 44 827 1.9463774664425566 false 3333 1.9463774664425566 true
gene 1 56 1026 2.050599981214657 false 3444 2.050599981214657 true
gene 1 608 1226 0.35038202557116316 false 3479 0.35037407630841144 true
gene 1 1226 102 0.08003831434668195 false 3480 0.08003700579858183 true
gene 1 65 110 3.4765024284870245 false 3530 3.4765024284870245 true
gene 1 79 112 0.4341694109779654 false 3540 0.4341694109779654 true
gene 1 608 1267 0.6820987624443675 false 3614 0.6819564796380306 true
gene 1 1267 1226 -0.5830959774954534 false 3615 -0.5831924705228891 true
gene 1 39 1295 0.1642675101027945 false 3680 0.1641217944414476 true
gene 1 1295 103 0.8506921334875677 false 3681 0.8505391277472256 true
gene 1 29 113 0.7194899884897754 false 3831 0.7194899884897754 true
gene 1 56 1352 1.4605459693928413 false 3874 1.4546255592365913 true
gene 1 1352 115 -0.05898136847405786 false 3875 -0.061574724519634326 true
gene 1 27 1352 -2.591843572337834 false 3976 -2.591843572337834 true
genomeend 44
